3.503409665265961405e-05,-1.492123746381403553e-04,-1.950117159528968558e-04,-2.945819262673478474e-04,-3.768974212081049142e-04,-4.778054885328710411e-04,-2.153217748098531928e-04,1.007726480800244908e-05,-1.435364477967861316e-04,-2.534337800532956227e-04,-4.929808794315148745e-04,-6.194038576512879120e-04,-4.712469027473373132e-04,-3.525884461451477686e-04,-2.347748513808361505e-05,9.601190283236720217e-05,4.379421858941379116e-06,-1.219652775937940634e-04,-7.297127954804432986e-05,1.039045297126768797e-04,1.230347312237896904e-04,-5.106554108023720956e-04,-6.106610409377757117e-04,-4.114276407630005641e-04,-9.435376366921621163e-05,6.560515134657961646e-05,3.253431353421222804e-05,-1.368417234443303069e-04,7.756101931872625018e-05,3.161736199135338054e-04,1.149759887698336179e-04,-1.130264350735946490e-04,-3.683895570380694246e-04,-4.842652522564391522e-04,-2.384174444199508094e-04,-6.696643624347047431e-05,1.746221939497592844e-04,4.486276495516507471e-04,2.439989083830896048e-04,4.771833668641016263e-05,-3.611530899625608142e-05,-7.210245589592881841e-05,1.807442894196218026e-04,1.246109067209703479e-04,1.066796512582947424e-04,8.935582505813513489e-05,7.382800200517433188e-05,4.969250550593310399e-05,4.508524469817269399e-05,1.118489787962601110e-04,1.160916462655594699e-04,3.279150879273466716e-05,8.021264884861500121e-06,1.671399390602178579e-05,8.186392618965038394e-06,5.217953272910921510e-05,-3.991682983344815295e-06,-1.705695853993172367e-04,-4.768116678152937592e-05,1.426817036797407769e-04,-1.774380483552486832e-05,-8.868610423470364322e-05,1.541859694644165022e-04,1.993506938747730353e-04,1.743839058961651708e-04,1.455118406576771202e-04,1.727915452840247403e-04,4.019597184396438410e-04,4.685604723577445796e-04,1.524342094519308812e-04,-4.461225673673897054e-05,2.958133015551204012e-05,-1.677580044282056071e-05,-1.057175662538302474e-04,1.697341343030758540e-05,9.730870911839538905e-05,1.545600756056600086e-04,3.581949021886242834e-05,2.401618653269690693e-05,1.259129568528439983e-04
-1.492123746381403553e-04,6.377199756353803435e-04,8.085051833438459089e-04,1.240225132164090400e-03,1.552681590485025876e-03,1.975477020777855353e-03,8.121617128577576783e-04,-1.144645403055497115e-04,6.077226693876290869e-04,1.015856703656877000e-03,2.051896381279928305e-03,2.571669566652446705e-03,1.917766564831145182e-03,1.451381578095857494e-03,7.515373286903569800e-05,-4.604633101603573440e-04,-8.925772210469979555e-05,4.981146829609102867e-04,2.920705503257890225e-04,-4.757313947169121665e-04,-5.240862267476528768e-04,2.175800748769747897e-03,2.600318878493165699e-03,1.719075437798232159e-03,3.285638196177788437e-04,-3.724881754456754322e-04,-1.582814694448046418e-04,5.446628443073992876e-04,-3.764490117675766052e-04,-1.380638565655206056e-03,-5.298060317562867981e-04,4.706506013920391156e-04,1.526833610787660042e-03,2.015314984493586301e-03,1.020463878383522918e-03,3.093299381022989185e-04,-7.468614549407800660e-04,-1.983471788143968163e-03,-1.047212945443684335e-03,-2.099054624145270831e-04,1.650436163099006006e-04,2.970661434262624758e-04,-8.310171091327593369e-04,-5.674887666451933991e-04,-4.829315345912922695e-04,-3.954621805947165520e-04,-3.296795393068214087e-04,-2.412563218926678979e-04,-2.279214915082358468e-04,-5.135082997134275554e-04,-5.341447839223912621e-04,-1.833161630059509592e-04,-5.895010326434012938e-05,-7.562637543833967534e-05,-2.346468700188768773e-05,-2.263122878708919436e-04,4.742201674914989584e-06,7.559517483523382547e-04,2.087709734288029724e-04,-6.134842993216536953e-04,9.193179204140042705e-05,3.049933934947860565e-04,-7.885887749984003131e-04,-9.599237640789718643e-04,-8.072469251047632638e-04,-6.529953843587702530e-04,-7.093331967563448661e-04,-1.666035185952925973e-03,-1.922278611643876743e-03,-5.249128084461600514e-04,2.954729569762869169e-04,-5.565646144737133188e-05,7.488624062670595316e-05,4.316553189600535459e-04,-5.576974855023647212e-05,-3.688248893735236842e-04,-6.126564573960057792e-04,-9.417574986848837411e-05,-5.604957565684317569e-05,-5.068397451581566722e-04
-1.950117159528968558e-04,8.085051833438459089e-04,1.866045688912264244e-03,3.158565588052495484e-03,4.237442746059492081e-03,4.151002063330348768e-03,2.445158747634664041e-03,-3.655690645437566200e-04,-5.822840466308913925e-04,1.381687326801729924e-03,2.536600771400547138e-03,4.364933296615003920e-03,3.781819926109876353e-03,2.583972601198675830e-03,9.144077809424445025e-04,3.993699257124333078e-04,1.029119290067430142e-03,1.141826391663173113e-03,1.149379355401624215e-03,3.224996319946312330e-04,-8.422960471764454494e-04,3.483677264330432236e-03,4.495253807149521968e-03,3.519584436778041333e-03,2.093572894224533538e-03,4.995240670670092779e-04,-2.881501624265741276e-04,1.142878921010406345e-03,4.065961837629598267e-04,-2.697923557743019812e-03,-2.922636020485987630e-03,-8.669782504084559260e-04,1.685261456588547533e-03,2.803006554162716397e-03,2.025526764813492201e-03,4.824210558455682631e-04,-1.424489360549677274e-03,-2.371424861770849140e-03,-1.498881537501029881e-03,-8.078288469743264127e-04,-6.724621029662158759e-05,5.489042190656814087e-04,6.388006399440540432e-04,4.798927193792909378e-04,4.300667506585359261e-04,1.894771868299047527e-04,1.187793909041438075e-04,4.042756669974759695e-04,4.808221234411182740e-04,3.269242020694021478e-04,3.762728206428400646e-04,7.556808956722295282e-04,5.163262398831701882e-04,1.458040738516211095e-04,-6.123830381586994887e-05,-1.805466494696474577e-05,3.186412347773292923e-04,5.018573088326331623e-04,-2.599293845125836633e-04,-9.461989835918755733e-04,-3.070142807605699968e-04,2.012559335820445373e-03,2.792851666300782618e-03,2.171519008661256401e-03,1.175278386159001780e-03,5.151879341426791837e-04,-9.316450013543792165e-04,-2.258064578508006421e-03,-3.292207837075851028e-03,-2.764389642315673214e-03,-1.259172510115607333e-03,-8.718137216836739038e-04,4.583584683728776101e-04,1.138250505177838736e-03,7.677817553873090596e-05,-8.243049346927045157e-04,-1.193023494954184496e-03,-7.937453775936905787e-04,-7.643195483607103128e-04,-9.704266384273475907e-04
-2.945819262673478474e-04,1.240225132164090400e-03,3.158565588052495484e-03,6.371190851323768091e-03,7.722102013865817134e-03,6.686657411921963050e-03,2.531177372734752691e-03,-3.142488769284153445e-03,-2.470076299868757732e-03,2.973803988577372864e-04,2.246640347347221567e-03,6.102483996132522515e-03,4.740435740106968207e-03,3.273040793507451651e-03,1.694375832056322414e-03,2.176700700863229974e-04,7.645480312844382415e-04,2.218358301431357874e-03,2.732504690424774826e-03,1.002790452774002684e-03,-1.485463417460702309e-03,6.102674752217943088e-03,8.086920063951532484e-03,5.585518278439150462e-03,2.675588871477760627e-03,-1.123146152754199694e-03,-1.337877510324388770e-03,1.111284298792703396e-03,1.871185045041367156e-04,-6.712974031142132300e-03,-9.159568971710517482e-03,-3.905853055686410273e-03,8.213376568010605878e-04,3.023378160570435597e-03,4.412530904752486050e-03,2.355344551151326501e-03,-2.955109899537418979e-03,-6.516963624433075308e-03,-2.607501100907982840e-03,-2.022322611895816576e-03,-8.168966497168899689e-05,4.730121096761336031e-04,9.967088464966119676e-04,9.512100166462038060e-04,1.057028576539209824e-03,7.971801673251953466e-04,5.681187127669500058e-04,7.677059854230878925e-04,5.901454826845658553e-04,5.058774163976926478e-04,5.591760777466133880e-04,9.034395782772885975e-04,6.521145144589357090e-04,3.314451322913127603e-04,2.121914533125186548e-04,2.077777568999392090e-04,4.431853236691207136e-04,9.923542744115999761e-04,-9.519989596902420038e-04,-1.802676926052324902e-03,-4.465539840610873151e-04,2.629486914117885009e-03,4.650226165949991088e-03,3.973733002730931059e-03,2.432379282283512242e-03,1.460344339176212645e-03,-5.337554666229551341e-04,-1.505649544230143987e-03,-2.968869685976323770e-03,-2.497727074799978211e-03,-2.743780879599661145e-04,1.311529718720259386e-04,1.290067857723734262e-03,1.905462323450647470e-03,1.048521143033189201e-03,1.827070036065210173e-05,-5.131725520424163358e-04,5.768636025418070399e-05,-3.670883949627785263e-04,-7.330566583917970782e-04
-3.768974212081049142e-04,1.552681590485025876e-03,4.237442746059492081e-03,7.722102013865817134e-03,1.036538307158136121e-02,9.867341353945485727e-03,5.865919823312564646e-03,-2.466845851587826360e-03,-2.470057171122222624e-03,2.125499334331786092e-03,4.538224810642873565e-03,9.788839267882050443e-03,8.466052049738957697e-03,5.573971582411045220e-03,2.385770629196524908e-03,1.001647043946989534e-03,2.216000938786640093e-03,3.733293692326458690e-03,4.198147172002594622e-03,1.824377700073308425e-03,-1.805106664180751311e-03,7.430260031412245364e-03,9.900703839901180137e-03,7.211004446857808593e-03,4.219971021416346439e-03,3.526022847547743218e-04,-1.430425142091364859e-03,2.566870444155258755e-03,8.954241914395814428e-04,-7.848260683437644283e-03,-1.052925086528205302e-02,-4.281074004650863192e-03,2.787747266526699290e-03,5.580598210477309175e-03,5.928278623991913195e-03,3.222269251439793727e-03,-3.630505468740404581e-03,-7.835773905314437002e-03,-2.935215856797535831e-03,-1.819839272694814825e-03,-2.304283736410483281e-04,6.021634548146184360e-04,1.793390671007517737e-03,1.368842152359506193e-03,1.455143107887920924e-03,1.040365618066324375e-03,9.036835973333882249e-04,1.510837995625511840e-03,1.374372937413849242e-03,1.011383710036690932e-03,1.035694143039388908e-03,1.704556378149210379e-03,1.079770519723953406e-03,3.073489541500542535e-04,-1.221625645487025864e-04,1.572689639984836717e-04,6.171256554482145275e-04,5.589957871613495137e-04,-1.201264113978000279e-03,-2.095524500888395949e-03,-7.470620877931093140e-04,4.576176645034373512e-03,7.341471218475637342e-03,6.290962813242656146e-03,3.640923159812147793e-03,2.071667754653313490e-03,-1.540574963186723371e-03,-3.043886351372291927e-03,-5.103456663686334327e-03,-5.253842514557948221e-03,-2.009841829636563933e-03,-1.106881392178802551e-03,1.546527654891799225e-03,3.058053064213808996e-03,1.349741950269433242e-03,-6.209455625135383789e-04,-1.202691586336187158e-03,-7.589579212160745512e-04,-1.057036825403074795e-03,-1.276342483569549392e-03
-4.778054885328710411e-04,1.975477020777855353e-03,4.151002063330348768e-03,6.686657411921963050e-03,9.867341353945485727e-03,1.164907337274238147e-02,9.042811191574023563e-03,5.201186217819928331e-04,2.148233953714879900e-03,5.802561191823481929e-03,8.667996192521837742e-03,1.349545904601551563e-02,1.151404723865011824e-02,7.479716741610183822e-03,1.999280294006046919e-03,4.404150580334910349e-04,2.491605240202632559e-03,6.092931206956048867e-03,5.898400083259572671e-03,2.204109209037017399e-03,-1.930574282750501403e-03,7.993049277529628086e-03,9.542231524828789779e-03,6.165573878769016469e-03,2.811793440165575361e-03,7.910153799979257596e-04,-1.263042664854104090e-03,3.589843533126441978e-03,4.053051599494413292e-05,-7.533946877106021192e-03,-7.275247717364815431e-03,-1.934874515466983389e-03,6.062800453935482219e-03,8.739428778486579494e-03,6.280832594521522372e-03,5.303137188144587018e-03,-3.959991707848374044e-03,-1.058588693615442056e-02,-2.910139950093307802e-03,-5.066792766721542676e-04,1.758999497742333321e-04,-4.868122897291626724e-05,-9.408349228570921617e-04,-7.951379580230326632e-04,-1.222678500746692801e-04,2.050862011315660136e-04,7.926075311543579870e-04,1.657287030719655245e-03,9.558790479869867535e-04,-3.415330355323090671e-04,-5.043642946776261430e-04,7.191026759252502334e-04,4.145537098811129988e-04,-2.704531182071742267e-04,-5.168067588550154723e-04,-3.871130420908590287e-04,3.338340252559264488e-04,8.758703169485525285e-04,-3.845789601706705143e-04,-2.095308918128747661e-03,-2.480889243167124034e-04,3.586106602136610467e-03,2.794189714656732104e-03,2.024580746120469878e-03,4.106302256961058919e-04,-3.583448200891966483e-05,-2.864226743732841904e-03,-3.680863100003876637e-03,-5.182063614101849007e-03,-4.586254869824525453e-03,-9.100511396879536327e-04,-1.252963952549841905e-03,8.060253530563656456e-04,3.012151455583169952e-03,1.086468035647051873e-03,-1.035826909053713706e-03,-1.419068731413111826e-03,-7.044432362701052780e-04,-7.298722155446476763e-04,-1.488458722041064537e-03
-2.153217748098531928e-04,8.121617128577576783e-04,2.445158747634664041e-03,2.531177372734752691e-03,5.865919823312564646e-03,9.042811191574023563e-03,1.289883212160123672e-02,9.255391351580695078e-03,8.503681937316020720e-03,1.035290336055597234e-02,9.746344242443706271e-03,1.166524064236945137e-02,1.112027596855939826e-02,6.443346687448601486e-03,2.096230531828847596e-03,2.763636430902565236e-03,5.411837293605311142e-03,7.358306697068868127e-03,6.527874083538402240e-03,4.814633649154601187e-03,-7.634224634679522047e-04,3.261962665799888507e-03,1.677567175186941810e-03,1.328701273435634869e-03,2.770037589649177508e-03,5.574588260585062321e-03,9.469408825314073932e-04,3.375845728069029258e-03,1.324802387059249810e-03,-4.791287095137522728e-04,3.617389121711931700e-03,1.597687945037306635e-03,6.324981334240340619e-03,7.421018168523170824e-03,1.269032697575190336e-03,4.287108012232475861e-03,-2.124009345871572755e-03,-3.240519056266182984e-03,-2.222965591747302016e-04,9.686499259723424515e-04,-1.650309308880911291e-05,-1.073804949371226850e-03,-5.277196624046188479e-04,-9.295970950238141182e-04,-1.253128702105900349e-05,5.614937418335049293e-04,1.922829712325821189e-03,3.114554817525170237e-03,1.674931582200173434e-03,3.632928406491975283e-04,3.113783211302268068e-04,1.224983017609193852e-03,6.114283025804690503e-04,-4.317312909918515768e-04,-9.471076288597120090e-04,-2.068445781115938072e-04,6.931366954973733558e-04,-7.749669959224593898e-04,5.038904189716041570e-04,-2.265419421104950296e-04,-2.988215509338601147e-04,2.718879393885150625e-03,1.921447638174662159e-03,9.041799811441071123e-04,-4.594391049202548472e-04,-6.879509678034458888e-04,-3.062758963024529539e-03,-1.131866272208211736e-03,-2.535743402893984692e-03,-5.985247092123860586e-03,-3.792271260371603454e-03,-3.811810577923666499e-03,-1.298251598064688100e-03,6.942868192351760214e-04,-1.536416076867163976e-03,-3.306043576207135220e-03,-2.974718003754081574e-03,-3.246918427028096157e-03,-2.362520520756022403e-03,-2.261017915068509829e-03
1.007726480800244908e-05,-1.144645403055497115e-04,-3.655690645437566200e-04,-3.142488769284153445e-03,-2.466845851587826360e-03,5.201186217819928331e-04,9.255391351580695078e-03,1.895642774636739983e-02,1.550130722284091302e-02,1.266281562941579120e-02,8.343506307133284616e-03,3.275295930894124487e-03,3.912057421084494564e-03,1.757565015863908489e-03,8.843997308636399133e-04,3.779001730247784265e-03,6.099962900283729082e-03,2.929326379992797970e-03,9.097256451781294629e-04,3.709228597010560957e-03,3.768920427074669397e-04,-1.307818027504407477e-03,-6.639561593636211789e-03,-2.902483621178202165e-03,2.379725048234500231e-03,8.970402755323245506e-03,4.803486448317744947e-03,1.882530986588117940e-04,1.723076047784228432e-03,1.086720850635968308e-02,2.269390563387271853e-02,9.209621835486948155e-03,3.976421921102236100e-03,2.441184425427547679e-03,-8.925780091915289094e-03,-3.470879960768017292e-03,1.143433301663330289e-03,1.178596072721981892e-02,1.246927857839674400e-03,7.775113098607798739e-04,7.862023104240290438e-05,-5.304510666127213413e-04,-1.100293104641003562e-03,-1.393236995283429628e-03,-8.066176113970699403e-04,-3.296817176723062571e-04,1.271139777571698125e-03,2.044571941902572233e-03,5.570928407062278580e-04,1.751660340995123133e-04,6.105225125326620974e-04,8.758895847534103277e-04,6.737502662046338355e-04,-1.413347038742200981e-04,-5.128468739642381806e-04,-6.701087446184369936e-05,1.276010059961936623e-03,-2.193776355740470566e-05,2.747326308295180639e-03,1.586193622657632333e-03,2.020249535042045909e-05,-9.068300437951080191e-04,-3.404943589204426687e-03,-5.151190618478795891e-03,-4.020057951053389311e-03,-3.410155434151356142e-03,-2.216638532687398907e-03,-3.035945025612975029e-04,-1.854021672917379338e-03,-5.415846633965726471e-03,-5.853916897589759270e-03,-5.978072768484337003e-03,-4.552756201724204865e-03,-4.631931118749756278e-03,-7.329486777467968985e-03,-7.263462732399261941e-03,-6.932461231174612444e-03,-6.803954501099045149e-03,-4.599803072242468482e-03,-4.386851849932759360e-03
-1.435364477967861316e-04,6.077226693876290869e-04,-5.822840466308913925e-04,-2.470076299868757732e-03,-2.470057171122222624e-03,2.148233953714879900e-03,8.503681937316020720e-03,1.550130722284091302e-02,1.821427384600789873e-02,1.240990734632012663e-02,1.000349658868685508e-02,6.003518966384074548e-03,4.274363224209395615e-03,2.173534184516746036e-03,-3.209681318745371360e-05,5.346902025333222447e-04,2.734105243290047092e-03,6.315764804859231966e-03,4.359522034673827401e-03,3.717957013631292742e-03,-1.570065049581526105e-04,8.562672445945203846e-04,-4.605698326209810116e-03,-4.715729601918898506e-03,-2.753933516305401286e-03,3.346813422803715347e-03,2.622085490562205568e-03,-1.690619368843641424e-04,-1.629501760857096724e-03,5.315309701561368727e-03,1.690406534678825720e-02,7.588746063298135343e-03,4.855196732008154603e-03,3.922432736450638321e-03,-5.199426066384867269e-03,3.161831122544133191e-03,-6.884884215445251018e-04,-4.262999111758240204e-05,4.580989852390791677e-04,1.392826558534055598e-03,1.009042825174630374e-03,-2.260905635569023745e-03,-6.710466183364197090e-03,-5.172462750043248930e-03,-3.282166280574478571e-03,-1.212733437866320586e-03,1.112132877358890234e-03,1.469139610114702848e-03,-1.290132843908529470e-03,-2.874132587630531636e-03,-2.883695532430221361e-03,-2.247170439206520702e-03,-1.279289358118290525e-03,-9.714347560209550102e-04,-3.178596397433089264e-04,-6.527166444343836943e-04,2.896477636535346408e-04,1.537806767557569655e-03,2.984721934821292933e-03,7.152210959080819745e-04,1.238444647638299329e-03,-4.843670501576097069e-03,-1.279048946881547640e-02,-1.294303401026689580e-02,-9.215582644792056494e-03,-6.083180439306772914e-03,-1.984640034373512472e-03,2.794394510603698169e-03,3.191556464608493945e-03,2.037957980179974475e-03,1.718910112403656187e-03,-1.482639201022829464e-03,-4.157020028055758223e-03,-4.351341119930567970e-03,-5.002517326178939489e-03,-3.920607801237623556e-03,-3.269881512345705447e-03,-2.484363653304223502e-03,-1.137815131132020961e-03,-2.288316239244227602e-03
-2.534337800532956227e-04,1.015856703656877000e-03,1.381687326801729924e-03,2.973803988577372864e-04,2.125499334331786092e-03,5.802561191823481929e-03,1.035290336055597234e-02,1.266281562941579120e-02,1.240990734632012663e-02,1.154398454737305853e-02,1.055435596238979423e-02,9.212962482138513029e-03,8.322618525637669185e-03,4.966025542981363644e-03,1.009477843983693857e-03,1.866159789796216972e-03,4.450081077239459448e-03,5.264127046290940221e-03,3.631953252307871041e-03,3.019551544870833007e-03,-6.627527662853873163e-04,2.913476413839174647e-03,-3.871935700756660260e-05,2.841527381456820825e-04,1.577072330067936417e-03,5.477119130783980779e-03,2.350460030791182067e-03,1.995881245972657304e-03,3.893344582105189217e-04,3.380875347850091812e-03,1.209196165784926641e-02,5.970680448869911637e-03,6.495977732740011897e-03,6.610681597050410176e-03,-2.498195104462248677e-03,1.154792464198839061e-03,-1.120096891196718965e-03,9.589189894216627744e-04,-5.559017511641870879e-04,9.060000696087440204e-04,3.838177444251239219e-04,-6.404744486837332142e-04,-2.742364473178448420e-03,-2.449557428814311526e-03,-1.510949808210324333e-03,-6.685041497729067453e-04,8.802474579938185601e-04,1.772441532378938494e-03,3.305195673862768892e-04,-9.259717937601139948e-04,-8.411313229801419336e-04,1.182658131436953829e-04,1.248690189927536588e-04,-5.138873154460881767e-04,-6.779072022980175841e-04,-5.223623037776128301e-04,6.908454090369570188e-04,6.917714754975373822e-04,1.947086786117407714e-03,1.909450751045742683e-05,2.398849941396018800e-04,1.611808666931744208e-04,-3.822059784705282137e-03,-4.962571110862518640e-03,-4.213969503364911953e-03,-3.324576371356508572e-03,-3.130468762506054357e-03,-2.084925590362690217e-03,-3.234719857470763713e-03,-4.316854991413363908e-03,-2.869545465550643864e-03,-3.879150427271753614e-03,-2.731675797766923951e-03,-1.578695143500548218e-03,-3.992489302225795712e-03,-4.811133704762575979e-03,-4.699550371801751100e-03,-4.088805954022267479e-03,-2.687021769245169240e-03,-3.254659080016908054e-03
-4.929808794315148745e-04,2.051896381279928305e-03,2.536600771400547138e-03,2.246640347347221567e-03,4.538224810642873565e-03,8.667996192521837742e-03,9.746344242443706271e-03,8.343506307133284616e-03,1.000349658868685508e-02,1.055435596238979423e-02,1.238340619693090172e-02,1.280856365290330805e-02,1.086872075503974265e-02,7.149908006619335246e-03,6.653128250753395818e-04,1.326117177848930545e-04,2.868609895994020127e-03,5.254422387640169875e-03,3.609568740332263440e-03,1.028869679321624308e-03,-1.481541838379551827e-03,6.261421231840719019e-03,5.215631667725621409e-03,3.450101004227421487e-03,1.361522747551542579e-03,3.105735898166597179e-03,1.084963810606688747e-03,3.167786726709570684e-03,-6.251170602425286426e-04,-7.562289080075717575e-04,6.997826043134036667e-03,5.362151671133550540e-03,8.795376070844060368e-03,9.860519551746285694e-03,1.175135647469906577e-03,2.257207367037688227e-03,-2.277136594475944950e-03,-4.665304536089832574e-03,-2.335704908846052315e-03,8.982347704567465035e-04,6.551231383621431087e-04,2.179190502053615544e-05,-4.052396078309820210e-03,-3.283029582995565260e-03,-2.389314749038478833e-03,-1.498803240289633401e-03,-1.763145038801981247e-04,7.532917609387223060e-04,-1.749553294456440179e-04,-1.940928650515189209e-03,-2.035641134269559373e-03,-4.542376354746851565e-04,-2.046283324426885779e-04,-7.154010008243040074e-04,-7.485680590910711403e-04,-1.019763767201466772e-03,2.902167644824085171e-04,1.765238952841405307e-03,1.790773089860645461e-03,-1.208460800649013411e-03,4.342062582295711588e-04,9.284495319025135984e-04,-4.804787773891551136e-03,-5.748703791110952761e-03,-4.951725850336835370e-03,-3.867004314165246176e-03,-4.090561190720461496e-03,-5.393752114301714716e-03,-6.422227550587235496e-03,-4.107157459992556367e-03,-1.221352040219439959e-03,-2.815768077375405739e-03,-1.615356687998897953e-03,3.741862538142455390e-04,-2.310433025316794425e-03,-3.782825374086245564e-03,-4.116362441131788362e-03,-2.720448473123627826e-03,-1.682202293306958411e-03,-3.037637440702467724e-03
-6.194038576512879120e-04,2.571669566652446705e-03,4.364933296615003920e-03,6.102483996132522515e-03,9.788839267882050443e-03,1.349545904601551563e-02,1.166524064236945137e-02,3.275295930894124487e-03,6.003518966384074548e-03,9.212962482138513029e-03,1.280856365290330805e-02,1.715269943645205200e-02,1.455335544995591673e-02,9.529732736364805029e-03,1.656267834838792826e-03,-6.582699451103662253e-05,2.816554058469874101e-03,7.564607548995451632e-03,6.663672513181015736e-03,1.957548683627927631e-03,-2.211277926136802439e-03,9.201474245421599127e-03,1.019125425634782867e-02,6.279106366833053961e-03,2.207117160240782642e-03,1.440430606115246674e-03,-8.958985701780456268e-04,4.621111275767668045e-03,-5.966497993696445734e-04,-7.064836818798702137e-03,-3.677609137805903494e-03,7.589435377116611004e-04,9.405856855186458740e-03,1.206168473533786312e-02,6.427464251302186446e-03,6.104409974398933812e-03,-4.262270078503320458e-03,-1.221278030734013371e-02,-3.350654319087900419e-03,4.313526237344698618e-04,5.256914886782913061e-04,-1.692327750292788816e-04,-3.176547612136478710e-03,-2.567522664272082252e-03,-1.540964543608409508e-03,-7.278034970895579494e-04,3.889245468313719234e-04,1.514477997541589663e-03,5.563903146779189532e-04,-1.507742899006564137e-03,-1.782856279060626801e-03,3.595083295460389772e-05,-9.967136029944290092e-06,-7.032638147507028637e-04,-8.511775876538288637e-04,-9.260567717927246445e-04,1.755892374939046986e-04,1.465369630276967122e-03,4.696449121978452730e-04,-2.287534187717401874e-03,1.282073147343296094e-04,3.131811851409904354e-03,-8.300769039447510956e-04,-1.603608668793916154e-03,-2.385478037389813372e-03,-2.011434702266237228e-03,-4.317132771690984985e-03,-5.555146113786199602e-03,-6.866176151809197901e-03,-4.878945239587979647e-03,-5.312874967231682099e-04,-1.818870083113529072e-03,1.324802161151692229e-04,3.034952662955688659e-03,4.846622606356687708e-04,-1.946940017220644917e-03,-2.352484035497473622e-03,-1.148579661857396196e-03,-8.167432431977275642e-04,-2.157851597740927194e-03
-4.712469027473373132e-04,1.917766564831145182e-03,3.781819926109876353e-03,4.740435740106968207e-03,8.466052049738957697e-03,1.151404723865011824e-02,1.112027596855939826e-02,3.912057421084494564e-03,4.274363224209395615e-03,8.322618525637669185e-03,1.086872075503974265e-02,1.455335544995591673e-02,1.320639444590976201e-02,8.505797157938426931e-03,1.713822402818454202e-03,1.067716047907171523e-03,3.707219044926237956e-03,5.926135641319902475e-03,5.126780284369179298e-03,1.896662373391381747e-03,-1.646687461166456779e-03,6.869539196971375002e-03,7.812283202847932623e-03,5.697339701235187154e-03,3.449754938008337858e-03,3.332915553205002736e-03,-1.988945374179352642e-04,4.549718053088321404e-03,6.576962640262693123e-04,-4.404435072683218766e-03,-1.678071202897458546e-03,1.094296043195282881e-03,8.396892137383539859e-03,1.048058458567653790e-02,4.837266155147673143e-03,3.735112681004341094e-03,-3.038403206285137260e-03,-7.319060835144219034e-03,-2.354507529974358710e-03,6.225914878532046951e-04,1.296979106800950161e-04,2.596673232525197961e-04,-9.161535478598793790e-04,-1.064761037284395412e-03,-5.655963187546443399e-04,-3.336004221586835305e-04,4.655680265166226906e-04,1.677161105382537695e-03,1.264951937030625237e-03,-2.835797069578783634e-04,-4.414934707709647420e-04,1.084176833761874275e-03,5.885877710551021529e-04,-4.421362888708757705e-04,-9.613117262121966726e-04,-6.715741158941418085e-04,3.804696142806731816e-04,3.977113400674918268e-04,2.442663265342219525e-04,-1.592370102728887316e-03,-2.947703675266324171e-04,4.259583098021409511e-03,2.530903893401003062e-03,1.455273639787252457e-03,-2.574483142084135930e-04,-7.672294333197086967e-04,-4.029651059940815745e-03,-5.864878319318552954e-03,-7.481066765638617368e-03,-6.844585077860216790e-03,-3.052250602802255870e-03,-3.142071708797387723e-03,8.493414421692393589e-05,2.922518253183833958e-03,6.593780640450738111e-05,-2.559829298679474827e-03,-2.911997483277335187e-03,-2.266948130625489558e-03,-1.713839317684374237e-03,-2.339679749436547433e-03
-3.525884461451477686e-04,1.451381578095857494e-03,2.583972601198675830e-03,3.273040793507451651e-03,5.573971582411045220e-03,7.479716741610183822e-03,6.443346687448601486e-03,1.757565015863908489e-03,2.173534184516746036e-03,4.966025542981363644e-03,7.149908006619335246e-03,9.529732736364805029e-03,8.505797157938426931e-03,5.652537452034262465e-03,9.319347876618138500e-04,2.992934882622802798e-04,1.962034468527649490e-03,3.221282156151735430e-03,2.650774141529546601e-03,4.547189745437283824e-04,-1.212790127268253710e-03,5.050719819645264376e-03,6.034496480177150082e-03,4.444571323096692221e-03,2.297859203400415187e-03,1.714333597205543657e-03,-1.977178624107366869e-04,2.978740493383094916e-03,2.413594155176951935e-04,-3.171407916121810142e-03,-1.295923916202973338e-03,9.953247802421166975e-04,5.709758012366719301e-03,7.139472200318431119e-03,3.378787338249442627e-03,1.866648444073772594e-03,-2.005552293267271000e-03,-4.908742724521937030e-03,-1.958916631312808236e-03,2.816800082916210519e-04,1.355191698651321205e-04,5.006085572154824566e-04,-7.781124038970509702e-04,-7.801211853399956774e-04,-5.635778992135131137e-04,-4.848788094711258727e-04,-8.741000297568254451e-05,6.583148190752757161e-04,6.170369462520367476e-04,-3.826959570017221253e-04,-4.823298771868229982e-04,6.024885271334812697e-04,3.549155331845723661e-04,-2.720814756785383602e-04,-5.813214165605838646e-04,-5.343036094665122755e-04,1.979314703862383284e-04,6.172542084393365606e-04,2.296281715819471140e-04,-1.258471166942394743e-03,-1.551009132406470340e-04,2.823943691527757566e-03,1.341764173824627716e-03,6.088352874731258781e-04,-3.864807574554593298e-04,-7.020316937094482710e-04,-2.744619135549151122e-03,-4.784264954702019575e-03,-5.866220958463894304e-03,-4.454918054153789511e-03,-1.798329454551612265e-03,-1.916789244980751736e-03,1.948418741702113294e-04,2.074341275865551702e-03,9.344592596305149824e-05,-1.662540012681423948e-03,-2.052316141164126605e-03,-1.380079790648568953e-03,-1.038823613821913136e-03,-1.627493096309225390e-03
-2.347748513808361505e-05,7.515373286903569800e-05,9.144077809424445025e-04,1.694375832056322414e-03,2.385770629196524908e-03,1.999280294006046919e-03,2.096230531828847596e-03,8.843997308636399133e-04,-3.209681318745371360e-05,1.009477843983693857e-03,6.653128250753395818e-04,1.656267834838792826e-03,1.713822402818454202e-03,9.319347876618138500e-04,9.135527154313788367e-04,1.067512672635546715e-03,1.392610743630606817e-03,1.074997687331220213e-03,1.233378301398843201e-03,1.320243871061951325e-03,-2.441737270613398257e-04,1.013540195271908943e-03,1.104672676256417303e-03,1.154947370184303702e-03,1.578606235450557031e-03,1.165762277308924613e-03,7.393235040387609064e-05,3.940389257056512232e-04,7.748177989155618714e-04,-7.879674039658159709e-04,-1.326336295830836615e-03,-1.115203452551613312e-03,-1.687338641356244919e-05,4.956986100317939967e-04,4.189818021813081065e-04,4.145367107552304581e-04,-6.569382472764400240e-04,-2.928982325666020374e-05,-2.296347581707966425e-04,-5.860691624483442075e-04,-2.077737453176828060e-04,-3.075417334809974207e-06,1.257170767296537884e-03,8.799746235378182223e-04,8.789884426394411945e-04,6.749286695335888217e-04,6.878194031940823919e-04,8.795452957906943698e-04,6.914607091385219619e-04,8.068912940547345652e-04,8.937892339076703363e-04,8.592565551289281511e-04,5.288810560602128213e-04,1.993980456704770208e-04,-2.067096710721508132e-05,2.558505626395209229e-04,3.725123864172673522e-04,-2.900867620678863348e-04,-3.429757697074660872e-04,-1.750437107896870615e-04,-3.515963660400024259e-04,1.304528067103736524e-03,3.034558081933681761e-03,2.583932112024125809e-03,1.628119361435820646e-03,9.690396073471715683e-04,-1.297865300865059743e-04,1.807582169433773992e-04,-5.736684052325470053e-04,-1.978635890046578395e-03,-1.493585889379840789e-03,-8.814805242548313024e-04,7.722984202511299408e-05,2.530912606292173113e-04,-2.435004907812982067e-04,-6.612495668940576677e-04,-6.873410074016702643e-04,-8.706123886641107612e-04,-8.083115298149778395e-04,-5.331214279713306905e-04
9.601190283236720217e-05,-4.604633101603573440e-04,3.993699257124333078e-04,2.176700700863229974e-04,1.001647043946989534e-03,4.404150580334910349e-04,2.763636430902565236e-03,3.779001730247784265e-03,5.346902025333222447e-04,1.866159789796216972e-03,1.326117177848930545e-04,-6.582699451103662253e-05,1.067716047907171523e-03,2.992934882622802798e-04,1.067512672635546715e-03,2.443434309946932673e-03,2.856434166565417852e-03,9.398155143705894565e-05,7.969595454846455150e-05,1.720795062381538310e-03,2.520691866031925894e-04,-1.004585691980667975e-03,-1.626277729183046817e-03,3.346090351723221210e-04,2.873960860892873104e-03,3.789945357636268549e-03,1.245237107909116922e-03,3.298539756861686460e-04,1.988653927775740730e-03,2.723923818309405970e-03,3.162550497165492018e-03,3.222101709015919978e-04,-3.628876224382397275e-04,-5.047071167451266591e-04,-2.014807676761952004e-03,-1.962493525516351405e-03,4.694718472992800051e-04,5.418322051183353284e-03,7.111360835476169748e-04,-3.604933854438362238e-04,-5.132430933809997969e-04,2.828370435820901693e-04,2.925580987201125208e-03,1.910712223359589028e-03,1.558643390861805342e-03,9.468639161821482044e-04,9.022814042011176750e-04,1.252819059063254789e-03,1.315160059824122549e-03,1.805417993394896640e-03,2.044797891761160682e-03,1.803396550163689424e-03,1.093088742990955091e-03,3.966071387553434164e-04,-1.631570595790634540e-04,4.550782454857576803e-04,7.011454353929473049e-04,-1.126264975213030640e-03,-1.721182469681030534e-04,5.768210808371810640e-04,-6.860684849322926365e-04,2.070427980470730765e-03,5.274343220637196794e-03,4.357646348082275418e-03,2.814972797296496840e-03,1.527390724713235601e-03,-1.623774190647196464e-04,-9.823602454600501195e-05,-1.297495961308162702e-03,-4.211471823832386475e-03,-4.235265738176671908e-03,-2.682671755546265930e-03,-5.403686764467512072e-04,-4.473347045469572032e-04,-1.526107614988698059e-03,-2.075875840589954443e-03,-2.022801576702109097e-03,-2.626929896747014388e-03,-2.109674425621461871e-03,-1.240401847555951120e-03
4.379421858941379116e-06,-8.925772210469979555e-05,1.029119290067430142e-03,7.645480312844382415e-04,2.216000938786640093e-03,2.491605240202632559e-03,5.411837293605311142e-03,6.099962900283729082e-03,2.734105243290047092e-03,4.450081077239459448e-03,2.868609895994020127e-03,2.816554058469874101e-03,3.707219044926237956e-03,1.962034468527649490e-03,1.392610743630606817e-03,2.856434166565417852e-03,3.939173540575760177e-03,1.341387954292942502e-03,9.797554278530760073e-04,2.256667498065172833e-03,-3.008187444647605346e-05,1.966314719282289802e-04,-7.207833509383325529e-04,1.129961636641643556e-03,3.606573905163840219e-03,5.047400962791595211e-03,1.629846002393271027e-03,1.125633541866213156e-03,2.167595685603961216e-03,2.876044497545380673e-03,4.968234557406013899e-03,1.447428333478380496e-03,1.537501099480783565e-03,1.626314746354520519e-03,-1.947700166983874987e-03,-1.644828250399653791e-03,1.881397541443151136e-05,5.066614897289010988e-03,3.338598496772590967e-04,-1.865662090285464679e-04,-4.544443284688618931e-04,3.058314267700890554e-04,2.511252518035588660e-03,1.496934609176797442e-03,1.292799121153002419e-03,7.854325924194285879e-04,1.026425904887223609e-03,1.644381821802763308e-03,1.509360064005572932e-03,1.673746739706833807e-03,1.920685962818578004e-03,1.992908680106287526e-03,1.215810522764770385e-03,2.930019770940341908e-04,-3.666065189670597081e-04,3.014620951280855927e-04,8.626223653777422310e-04,-9.591106705894612361e-04,1.610767622098981306e-04,4.014888534566878379e-04,-7.027300684786795841e-04,2.642177110792069423e-03,5.120735594088856625e-03,3.873286331653517673e-03,2.225517622579420082e-03,9.643164770210706487e-04,-1.092231050399407669e-03,-1.264462530136062487e-03,-2.860647300155701091e-03,-5.771392371786531438e-03,-5.149978474510214475e-03,-3.698176190473132993e-03,-9.409088252535966444e-04,-3.632881565145124189e-04,-2.182111379012782997e-03,-3.164869421953193148e-03,-3.164968449060265743e-03,-3.582934073067955624e-03,-2.773518632488062349e-03,-2.053090750665758323e-03
-1.219652775937940634e-04,4.981146829609102867e-04,1.141826391663173113e-03,2.218358301431357874e-03,3.733293692326458690e-03,6.092931206956048867e-03,7.358306697068868127e-03,2.929326379992797970e-03,6.315764804859231966e-03,5.264127046290940221e-03,5.254422387640169875e-03,7.564607548995451632e-03,5.926135641319902475e-03,3.221282156151735430e-03,1.074997687331220213e-03,9.398155143705894565e-05,1.341387954292942502e-03,7.347801242100326057e-03,7.293285300698134840e-03,4.242372637509615740e-03,-5.707558434491205980e-04,2.375946151023208136e-03,1.063050451425485597e-03,-1.524021986401378082e-03,-1.858822683336570913e-03,-4.384482840633872067e-04,-1.141315725843674179e-03,1.317106030412796159e-03,-1.120244729193911257e-03,-4.367107397820997779e-03,-3.661473764767947045e-03,-1.976043528774526145e-03,2.642938236738435337e-03,3.723301313723897596e-03,3.247891585446087588e-03,8.084925110182357780e-03,-2.573633537819931035e-03,-9.998331843029898552e-03,2.996793194269206390e-05,7.370683830771439108e-04,4.475145637965728890e-04,-2.366540497406390692e-03,-3.192544963060375655e-03,-2.423228239200411142e-03,-8.882295760366393234e-04,5.279097176938742910e-04,1.834001934252746813e-03,2.198899658783238283e-03,1.446639122989787189e-04,-1.213546436952604116e-03,-1.526510166433222042e-03,-1.091249517077475103e-03,-8.270628516715538550e-04,-6.963327298784340860e-04,-3.359677317492785792e-04,-1.673785551099314466e-04,-1.487625084101334744e-04,-6.959079575313279668e-05,-2.698747723464460198e-05,-4.202528264722569249e-04,4.884633217407559607e-04,-1.082664210504006913e-03,-3.603000337124695647e-03,-3.010380312854082484e-03,-2.499583414877399028e-03,-1.179820398129339870e-03,-8.648055472167305449e-04,3.867346672448272217e-03,4.370756894319113503e-03,1.966030112244856326e-03,2.868187253763605522e-03,1.091365503300669761e-03,-3.711325254931583566e-04,4.055377325200606987e-04,1.005286350153756668e-03,8.690785068126189068e-04,1.538962508506155425e-03,1.288564798860506247e-03,1.045906087802944478e-03,6.121773191362987580e-04
-7.297127954804432986e-05,2.920705503257890225e-04,1.149379355401624215e-03,2.732504690424774826e-03,4.198147172002594622e-03,5.898400083259572671e-03,6.527874083538402240e-03,9.097256451781294629e-04,4.359522034673827401e-03,3.631953252307871041e-03,3.609568740332263440e-03,6.663672513181015736e-03,5.126780284369179298e-03,2.650774141529546601e-03,1.233378301398843201e-03,7.969595454846455150e-05,9.797554278530760073e-04,7.293285300698134840e-03,7.637713109046262439e-03,4.501328136595673761e-03,-5.056443694212796715e-04,2.071612434122229937e-03,1.205264377502316461e-03,-1.605691358182465044e-03,-1.961965368614069800e-03,-1.227115725013421454e-03,-1.704586016346308760e-03,1.103215834386628855e-03,-1.051772299571406824e-03,-5.586831011838760443e-03,-6.842266341444179847e-03,-3.776390182823381129e-03,1.421322331768915329e-03,2.682706463235599598e-03,4.106791267059740035e-03,8.782120441708375636e-03,-2.712319343048232544e-03,-1.103123324484257990e-02,1.994964223603523830e-04,4.898235518079731374e-04,3.374927880777376711e-04,-2.518395796940977281e-03,-2.512881263065471979e-03,-1.861099704608900913e-03,-3.671556725629573979e-04,9.571341374798172453e-04,2.079934875089287354e-03,2.346803286212022568e-03,3.173988873891927121e-04,-8.627319203943341428e-04,-1.199478118190879308e-03,-9.633324154191068951e-04,-7.820919403601876707e-04,-5.998873064753775311e-04,-2.375726333874064288e-04,2.054601402489914446e-05,-2.011788877770162522e-04,-3.906654132454824308e-04,-5.517256857198926320e-04,-4.499305294091122758e-04,3.793148031915272384e-04,-8.863353309153098334e-04,-2.239407595440176448e-03,-1.460024645945089388e-03,-1.341610094437485851e-03,-2.719705833020991267e-04,-2.756586993218002523e-04,4.934830493083753808e-03,5.542065494993950875e-03,2.545570706635814136e-03,3.294302153095046010e-03,1.752334201311293730e-03,1.639031545334488824e-04,7.975850318993619103e-04,1.867545396660562655e-03,1.798279362462209185e-03,2.537237724345538323e-03,2.022645001637703860e-03,1.481191227460737503e-03,1.248267468779697522e-03
1.039045297126768797e-04,-4.757313947169121665e-04,3.224996319946312330e-04,1.002790452774002684e-03,1.824377700073308425e-03,2.204109209037017399e-03,4.814633649154601187e-03,3.709228597010560957e-03,3.717957013631292742e-03,3.019551544870833007e-03,1.028869679321624308e-03,1.957548683627927631e-03,1.896662373391381747e-03,4.547189745437283824e-04,1.320243871061951325e-03,1.720795062381538310e-03,2.256667498065172833e-03,4.242372637509615740e-03,4.501328136595673761e-03,4.227700875872585431e-03,1.431942170092800643e-04,-5.751282930958517879e-04,-2.178734543019295207e-03,-2.217035375199653477e-03,-5.623327032876887500e-07,1.549065796705336980e-03,-1.534019460599125800e-06,3.789210314261246823e-05,5.407384191030774638e-04,-5.553369936912533290e-04,-8.447806770382310874e-04,-2.070104270053396874e-03,-7.228793121691750060e-04,-4.295862368144871043e-04,-6.056655112018482362e-05,3.916890247683599453e-03,-9.608799648368956947e-04,-1.941817530617649624e-03,1.124248370971940884e-03,-3.900758754420748792e-05,-1.155820053283425906e-04,-1.685467605767066888e-03,2.465123273424693205e-04,6.329741628844536613e-05,8.385994176322115676e-04,1.362652007721677468e-03,2.079718224785264552e-03,2.298064441725173636e-03,8.574464686878899202e-04,6.456552845776897254e-04,6.359997929776688196e-04,3.448269718479737953e-04,1.007452648243871901e-04,-7.032467630446322354e-05,-9.384071813638207604e-05,4.590779334382500440e-04,3.508007853587266352e-04,-1.048478039408029614e-03,-3.563522998563171777e-04,4.704445583117256111e-04,-1.220035458892514086e-04,-2.224580812811995480e-04,1.124976777345005827e-03,1.149961243993144824e-03,6.628353090937820014e-04,7.213563220749822811e-04,3.862909285809295592e-04,4.650741892450943778e-03,4.478690987085419059e-03,5.853905545828961578e-05,-2.207726889265834442e-04,-2.912253733784303782e-04,-5.919289142982208209e-04,-6.996148447616414847e-04,-2.649358056495829594e-04,-1.161857858082596893e-04,5.266246279829677693e-04,-3.344142511256075053e-04,-3.358035367675162009e-04,1.999085081623290809e-04
1.230347312237896904e-04,-5.240862267476528768e-04,-8.422960471764454494e-04,-1.485463417460702309e-03,-1.805106664180751311e-03,-1.930574282750501403e-03,-7.634224634679522047e-04,3.768920427074669397e-04,-1.570065049581526105e-04,-6.627527662853873163e-04,-1.481541838379551827e-03,-2.211277926136802439e-03,-1.646687461166456779e-03,-1.212790127268253710e-03,-2.441737270613398257e-04,2.520691866031925894e-04,-3.008187444647605346e-05,-5.707558434491205980e-04,-5.056443694212796715e-04,1.431942170092800643e-04,4.870934116831283629e-04,-2.014608462619723109e-03,-2.464851237010882382e-03,-1.641601511590903666e-03,-4.810891061054428739e-04,3.706999277960187737e-04,2.399910758643597703e-04,-4.167446288285131658e-04,2.202419619200459300e-04,1.588834736649347547e-03,1.323268982374804824e-03,1.654082551175454965e-04,-9.670729246100997741e-04,-1.510443975395437581e-03,-1.075190373167765091e-03,-4.701306687549038034e-04,7.968718974946729754e-04,1.934895360495921587e-03,9.304353414012963034e-04,3.802842611031698400e-04,-9.489497052876063232e-05,-2.165111276970086622e-04,4.137588217674857292e-04,2.481405006414470738e-04,1.736826516576437621e-04,1.401285450588503735e-04,1.190683527462715972e-04,5.051860018233675180e-05,8.440598040999078375e-05,2.619696759602841373e-04,2.655497740055939534e-04,2.322045562210253082e-05,-3.203048315233937484e-05,5.753654528821204241e-06,-2.093727801181724472e-05,1.063607777772382628e-04,-5.868982860677319526e-05,-5.871566307803510482e-04,-2.567796173696056897e-05,5.738530786738920905e-04,-1.087564417172804931e-05,-4.329427950301054052e-04,7.652837463837186901e-06,1.875607704533580945e-04,2.447554927285819316e-04,2.456804436510279352e-04,4.654748555170168845e-04,1.101144621826597022e-03,1.422050750596282618e-03,5.457388927580274825e-04,-1.854462733146949047e-04,-2.533167533378835501e-06,-1.727784245188668146e-04,-4.319064605495207421e-04,-5.530147637266157095e-05,2.262629454725349494e-04,4.306923084029603307e-04,4.838095181071456216e-05,7.386293447676019240e-05,3.925884425886855115e-04
-5.106554108023720956e-04,2.175800748769747897e-03,3.483677264330432236e-03,6.102674752217943088e-03,7.430260031412245364e-03,7.993049277529628086e-03,3.261962665799888507e-03,-1.307818027504407477e-03,8.562672445945203846e-04,2.913476413839174647e-03,6.261421231840719019e-03,9.201474245421599127e-03,6.869539196971375002e-03,5.050719819645264376e-03,1.013540195271908943e-03,-1.004585691980667975e-03,1.966314719282289802e-04,2.375946151023208136e-03,2.071612434122229937e-03,-5.751282930958517879e-04,-2.014608462619723109e-03,8.339326977872478508e-03,1.013856365271381156e-02,6.780651074649981895e-03,2.028182597698800511e-03,-1.417105940012956464e-03,-9.224787522999327574e-04,1.729608203086145006e-03,-8.938753670530030391e-04,-6.419967850809898610e-03,-5.135133986498919938e-03,-5.276472091420703189e-04,4.076488696082858527e-03,6.303536361756748030e-03,4.324513816114059460e-03,1.865141158863222338e-03,-3.281519171032469106e-03,-7.831525024166919105e-03,-3.848182196534179027e-03,-1.564975645400659698e-03,3.964627014891552699e-04,9.035814501388561831e-04,-1.737414445018359028e-03,-1.052570446068975228e-03,-7.410566849759364595e-04,-5.985547864079519441e-04,-4.928098983157471781e-04,-1.992212992286348128e-04,-3.502931328305771601e-04,-1.090836440898373125e-03,-1.098958460482035888e-03,-8.745791439238009130e-05,1.413788132269363943e-04,-2.560035180411613141e-05,8.016903906206010271e-05,-4.466484912168504091e-04,2.596701497066195908e-04,2.445104887670993161e-03,1.519083451030357984e-04,-2.359364159306696386e-03,4.730669381037788760e-05,1.780841968268565391e-03,-9.978673260278012654e-05,-8.713172014071406731e-04,-1.084155453987396779e-03,-1.078633273733301283e-03,-1.966573112195804836e-03,-4.609404266852918340e-03,-5.961605767804382602e-03,-2.341578608095383918e-03,6.854390024918791341e-04,-7.585677387839357777e-05,6.522513659066008765e-04,1.726618660589304471e-03,1.206477447391954961e-04,-1.046297057494255302e-03,-1.894890716072852909e-03,-2.990504454806673065e-04,-3.719385729254050233e-04,-1.695430588141956518e-03
-6.106610409377757117e-04,2.600318878493165699e-03,4.495253807149521968e-03,8.086920063951532484e-03,9.900703839901180137e-03,9.542231524828789779e-03,1.677567175186941810e-03,-6.639561593636211789e-03,-4.605698326209810116e-03,-3.871935700756660260e-05,5.215631667725621409e-03,1.019125425634782867e-02,7.812283202847932623e-03,6.034496480177150082e-03,1.104672676256417303e-03,-1.626277729183046817e-03,-7.207833509383325529e-04,1.063050451425485597e-03,1.205264377502316461e-03,-2.178734543019295207e-03,-2.464851237010882382e-03,1.013856365271381156e-02,1.422330388694235601e-02,9.975320012611128481e-03,3.215324903603559471e-03,-2.812727463238559600e-03,-2.043297892609195233e-03,2.566135103715777490e-03,-7.056407641777254387e-04,-9.725525127061266512e-03,-1.159152560498106881e-02,-2.660392020282001911e-03,4.298881948913281341e-03,7.346526777229256573e-03,7.390481815573357073e-03,1.487469047703899152e-03,-3.820762174899808728e-03,-1.024652385170378606e-02,-4.947988370567532775e-03,-2.032531248573603722e-03,2.208057661274714922e-04,1.874172484326681095e-03,-3.633939953684105738e-04,4.561626417003171382e-05,-1.603624830993565463e-04,-5.885223932866030057e-04,-1.152677806655343388e-03,-8.363702254999362323e-04,-6.372338114525060077e-05,-6.512604524885498526e-04,-7.109393090144615389e-04,4.866740926192318737e-04,4.851280898533400269e-04,1.678773118417357620e-04,8.387861141485686647e-05,-4.903174934660294200e-04,1.220803752002785848e-04,2.536104513722105182e-03,-6.784470077397271445e-04,-3.189354059633040840e-03,-2.745637552468748800e-04,3.842686659631283728e-03,3.450454226153331673e-03,2.612191250431621873e-03,1.216744663437172675e-03,3.333112325705524237e-04,-2.141557941968498958e-03,-7.254335826979157673e-03,-8.928350489649473573e-03,-3.642832973653305911e-03,3.799927111240209462e-04,3.276218180499335109e-04,2.172636681935841488e-03,3.823561697152621716e-03,1.947526234997586916e-03,2.024912176539884398e-06,-1.262182095682034058e-03,5.155704277841111115e-04,1.988860068389337632e-05,-1.342957544170571976e-03
-4.114276407630005641e-04,1.719075437798232159e-03,3.519584436778041333e-03,5.585518278439150462e-03,7.211004446857808593e-03,6.165573878769016469e-03,1.328701273435634869e-03,-2.902483621178202165e-03,-4.715729601918898506e-03,2.841527381456820825e-04,3.450101004227421487e-03,6.279106366833053961e-03,5.697339701235187154e-03,4.444571323096692221e-03,1.154947370184303702e-03,3.346090351723221210e-04,1.129961636641643556e-03,-1.524021986401378082e-03,-1.605691358182465044e-03,-2.217035375199653477e-03,-1.641601511590903666e-03,6.780651074649981895e-03,9.975320012611128481e-03,8.894798378904977473e-03,5.287399914029551617e-03,9.558722953246161875e-04,-1.692335459327654089e-04,2.139549223145130550e-03,1.186142388529357180e-03,-3.934559907965106546e-03,-4.510766698114498756e-03,-3.364450432673793661e-04,3.177611607349369472e-03,5.088397455976455090e-03,3.255385568254479025e-03,-3.192530792845529094e-03,-1.784450971906948076e-03,-7.636657761366238972e-04,-3.564663389760827378e-03,-1.875942013486270495e-03,-2.841683634035414244e-04,2.614593975304829211e-03,2.513759389128386590e-03,1.904745880774532090e-03,9.697400868658058578e-04,-2.507658572219452443e-04,-1.098343598230136107e-03,-6.397902713786445981e-04,7.763579296127349691e-04,9.699001679637217011e-04,1.185287486018563432e-03,1.978960633637310684e-03,1.409078638273936548e-03,5.712733721348531692e-04,-3.612080682295639274e-05,-1.537409383138555168e-04,6.243716247808390194e-04,1.362574821829661475e-03,-4.238838445160801214e-04,-2.015793565095823098e-03,-8.195203990838036698e-04,4.973142632373955124e-03,7.120091473644165822e-03,5.535192333732347723e-03,3.276371990262776437e-03,1.314382547291103502e-03,-1.951340689767063754e-03,-8.020800785584262377e-03,-1.039382804044167684e-02,-6.973647637614677555e-03,-3.905427109010380093e-03,-2.351997269893651467e-03,1.310670038609053345e-03,2.638113045025803488e-03,-1.000423424301334315e-04,-2.136717414269430175e-03,-3.379107074262869843e-03,-2.174536691086797081e-03,-1.988007979055778258e-03,-2.424277252668087263e-03
-9.435376366921621163e-05,3.285638196177788437e-04,2.093572894224533538e-03,2.675588871477760627e-03,4.219971021416346439e-03,2.811793440165575361e-03,2.770037589649177508e-03,2.379725048234500231e-03,-2.753933516305401286e-03,1.577072330067936417e-03,1.361522747551542579e-03,2.207117160240782642e-03,3.449754938008337858e-03,2.297859203400415187e-03,1.578606235450557031e-03,2.873960860892873104e-03,3.606573905163840219e-03,-1.858822683336570913e-03,-1.961965368614069800e-03,-5.623327032876887500e-07,-4.810891061054428739e-04,2.028182597698800511e-03,3.215324903603559471e-03,5.287399914029551617e-03,6.280556717383764011e-03,4.928171104564237764e-03,1.525819415093309424e-03,1.400154235251313897e-03,3.026848311910898537e-03,1.813976876989985103e-03,2.066672620921716687e-03,7.393844891934360248e-04,1.117102867211698962e-03,1.758873834298393599e-03,-1.059163789976882205e-03,-5.210762205492976661e-03,4.735000330687544302e-05,7.302569259988464859e-03,-1.067512600204131466e-03,-1.383388163915619945e-03,-7.848629956351765120e-04,2.093108696695227325e-03,5.024403328966630181e-03,3.445821808757028749e-03,2.309076787419300086e-03,7.644403266580761507e-04,7.962957468315985763e-05,6.830694601259745553e-04,1.856562211343207010e-03,2.675938208269968213e-03,3.096623606417872251e-03,3.219517592196129239e-03,2.081644337292022119e-03,8.242619265659562999e-04,-1.914710810915462894e-04,4.100674518365434026e-04,1.115879817989739271e-03,-5.484224102582676945e-04,-3.595356905639616107e-04,-3.321718911273346042e-04,-1.263732572977989323e-03,5.145821354672648097e-03,1.008161955431792316e-02,8.128386589467555962e-03,5.148713101118926674e-03,2.488941733990702575e-03,-1.193859960981370240e-03,-5.188160112604586933e-03,-7.835930140701748495e-03,-8.808791331279807249e-03,-7.327126381179969311e-03,-4.508632057341989061e-03,1.150171443417555078e-04,8.736738112113522645e-04,-1.931985226035490884e-03,-3.648626893702715430e-03,-4.350772634043110695e-03,-4.341779821354333109e-03,-3.593288705329826267e-03,-2.796540311576828277e-03
6.560515134657961646e-05,-3.724881754456754322e-04,4.995240670670092779e-04,-1.123146152754199694e-03,3.526022847547743218e-04,7.910153799979257596e-04,5.574588260585062321e-03,8.970402755323245506e-03,3.346813422803715347e-03,5.477119130783980779e-03,3.105735898166597179e-03,1.440430606115246674e-03,3.332915553205002736e-03,1.714333597205543657e-03,1.165762277308924613e-03,3.789945357636268549e-03,5.047400962791595211e-03,-4.384482840633872067e-04,-1.227115725013421454e-03,1.549065796705336980e-03,3.706999277960187737e-04,-1.417105940012956464e-03,-2.812727463238559600e-03,9.558722953246161875e-04,4.928171104564237764e-03,7.653224483449086457e-03,2.991709535170909273e-03,1.302994206499039466e-03,3.192756597889728331e-03,6.870205430131949911e-03,1.088509479631376807e-02,4.181903829035166741e-03,2.184244902598179473e-03,1.517489404277714074e-03,-4.512088087766139878e-03,-5.048272435076908010e-03,1.366968945639506243e-03,1.103556855105207457e-02,8.937846047641693050e-04,2.454350651482299205e-04,-6.694322291275908937e-04,1.040983618554880375e-03,3.718104998409147311e-03,2.176021621588570317e-03,1.478316697594667713e-03,5.065963067413116038e-04,6.274918136654949932e-04,1.427449741820406874e-03,1.868083009184600112e-03,2.308750265362692362e-03,2.701345872998837678e-03,2.776663653209822998e-03,1.713173209623491001e-03,4.285738755438030039e-04,-5.701157528444230314e-04,2.708517480804834769e-04,1.105586458021974063e-03,-1.411937130012903699e-03,6.474235882196380893e-04,1.014216384858557425e-03,-9.485951069948419081e-04,3.452600280379906472e-03,6.425460341924995288e-03,4.640024555388166418e-03,2.672605364149795593e-03,9.020653809094881593e-04,-1.596891638799520030e-03,-3.274314456664293143e-03,-5.300845299250466630e-03,-8.341120655110424720e-03,-7.995669848761847651e-03,-5.732714482619790351e-03,-1.621410936523519320e-03,-9.355694958259178941e-04,-3.680920143843083130e-03,-4.932772900370709611e-03,-5.033530438559180760e-03,-5.542957311557269832e-03,-4.149678704638790419e-03,-3.078955008218804083e-03
3.253431353421222804e-05,-1.582814694448046418e-04,-2.881501624265741276e-04,-1.337877510324388770e-03,-1.430425142091364859e-03,-1.263042664854104090e-03,9.469408825314073932e-04,4.803486448317744947e-03,2.622085490562205568e-03,2.350460030791182067e-03,1.084963810606688747e-03,-8.958985701780456268e-04,-1.988945374179352642e-04,-1.977178624107366869e-04,7.393235040387609064e-05,1.245237107909116922e-03,1.629846002393271027e-03,-1.141315725843674179e-03,-1.704586016346308760e-03,-1.534019460599125800e-06,2.399910758643597703e-04,-9.224787522999327574e-04,-2.043297892609195233e-03,-1.692335459327654089e-04,1.525819415093309424e-03,2.991709535170909273e-03,1.751901124813144564e-03,-1.913652373417884837e-04,9.758694770566975077e-04,4.349099928279834444e-03,7.521257079262318873e-03,3.155554721490890554e-03,5.118043609761480962e-04,-1.734221710677922093e-04,-3.439661888869697138e-03,-3.349682769845732395e-03,1.002216322010438714e-03,6.377884865238312752e-03,3.204724714256736487e-04,-2.866067661254215123e-05,-1.451155410273517938e-04,5.662095474148836315e-04,8.313807918736699880e-04,4.445207083841623162e-04,1.502319361229018709e-04,-1.700893966230064417e-04,-8.754782708180494730e-05,7.907907531818383863e-05,2.501000829760606004e-04,5.387447404441508348e-04,7.664408595568009130e-04,7.328128888858977249e-04,5.313353668173649699e-04,1.858022903024476294e-04,-7.826864307395956508e-05,5.207956615495295703e-05,4.668563951123634852e-04,-5.604542241946116173e-05,7.587462035065481230e-04,5.586188088698805640e-04,-1.994064420736829256e-04,3.383516481151113025e-04,5.992144402084690008e-04,-1.611734789536616128e-04,-1.652272300840038738e-04,-4.960513238181948718e-04,-4.756507278840722309e-04,-1.349744044145839705e-03,-2.071343687638927365e-03,-2.582660727969003731e-03,-2.863570733119405205e-03,-2.262389829715035893e-03,-1.193288845984084899e-03,-1.363472852784883196e-03,-2.445387447329845296e-03,-2.497945409922985860e-03,-2.607413032298264589e-03,-2.526968795235627445e-03,-1.792551047839132045e-03,-1.556978049601198677e-03
-1.368417234443303069e-04,5.446628443073992876e-04,1.142878921010406345e-03,1.111284298792703396e-03,2.566870444155258755e-03,3.589843533126441978e-03,3.375845728069029258e-03,1.882530986588117940e-04,-1.690619368843641424e-04,1.995881245972657304e-03,3.167786726709570684e-03,4.621111275767668045e-03,4.549718053088321404e-03,2.978740493383094916e-03,3.940389257056512232e-04,3.298539756861686460e-04,1.125633541866213156e-03,1.317106030412796159e-03,1.103215834386628855e-03,3.789210314261246823e-05,-4.167446288285131658e-04,1.729608203086145006e-03,2.566135103715777490e-03,2.139549223145130550e-03,1.400154235251313897e-03,1.302994206499039466e-03,-1.913652373417884837e-04,1.952982626924348398e-03,4.889226187314668105e-04,-1.349139574154258493e-03,-1.216315175111046254e-03,3.307753281220596913e-04,3.132168018291221680e-03,3.747445269340017159e-03,2.095373370091866642e-03,7.397725081030925636e-04,-6.434683848609338251e-04,-2.010145911717980266e-03,-5.966580253495668658e-04,5.849902146296525598e-04,-6.369941432392210961e-05,3.697855791686673142e-04,2.992271935017874014e-04,1.880951528736856960e-05,-5.780412424582722676e-05,-1.960614372938781157e-04,-1.165710057570554421e-04,3.594730895205772224e-04,6.394801469859622434e-04,1.483686510338366900e-04,5.701570302325360752e-05,6.204026935498701363e-04,3.056529776165676756e-04,-1.506666445577074570e-04,-4.649750746244070898e-04,-2.861760961057585703e-04,1.813899744715333334e-05,-2.588070412145233889e-04,-1.028830269706096487e-04,-4.551084387536239481e-04,-2.131644161995428007e-04,2.138258202584095418e-03,1.969074849817269851e-03,1.649958248159989933e-03,6.517969065923743654e-04,1.777887301241263727e-04,-1.517689647299654216e-03,-2.944805178384525459e-03,-3.412948675750457610e-03,-2.957723038067106101e-03,-1.610871262111386462e-03,-1.283504291197089643e-03,3.788821644084662608e-04,1.631900673852329552e-03,5.691421403920832872e-04,-6.106608445058750185e-04,-7.583558160007320987e-04,-6.888336236066524513e-04,-5.319471740390170926e-04,-5.869254988875880017e-04
7.756101931872625018e-05,-3.764490117675766052e-04,4.065961837629598267e-04,1.871185045041367156e-04,8.954241914395814428e-04,4.053051599494413292e-05,1.324802387059249810e-03,1.723076047784228432e-03,-1.629501760857096724e-03,3.893344582105189217e-04,-6.251170602425286426e-04,-5.966497993696445734e-04,6.576962640262693123e-04,2.413594155176951935e-04,7.748177989155618714e-04,1.988653927775740730e-03,2.167595685603961216e-03,-1.120244729193911257e-03,-1.051772299571406824e-03,5.407384191030774638e-04,2.202419619200459300e-04,-8.938753670530030391e-04,-7.056407641777254387e-04,1.186142388529357180e-03,3.026848311910898537e-03,3.192756597889728331e-03,9.758694770566975077e-04,4.889226187314668105e-04,1.966755311690110506e-03,2.268020897723351751e-03,1.847613777652729224e-03,1.770434966890960130e-04,-3.214450951877701650e-04,-4.228235600252110604e-04,-1.364307569979393694e-03,-2.809841993140846025e-03,6.831965308356219421e-04,5.443609714231608179e-03,4.367416283917232981e-04,-3.419811040423994153e-04,-5.535360430231933866e-04,7.843930139196195628e-04,3.289491472371975592e-03,2.206397773272217658e-03,1.566301010186099772e-03,7.132808390896146862e-04,3.627931113613548511e-04,6.690570370712841134e-04,1.248553541748490588e-03,1.835117535897127930e-03,2.053856736054954571e-03,1.873006517290737782e-03,1.138310781244726479e-03,4.456822869911467012e-04,-1.632355928392934354e-04,3.689542335757256607e-04,5.680075374778582658e-04,-1.056275589060525367e-03,-3.340328591528915199e-04,4.005421386292429471e-04,-7.413146498484752406e-04,2.554208669295513195e-03,5.939484136139669065e-03,5.063663610229222553e-03,3.318186087599685197e-03,1.803845864702325686e-03,-1.983926405535082463e-04,-1.421003696222931630e-03,-2.570156459722701837e-03,-4.405853094636202026e-03,-4.270380486826869451e-03,-2.498457199079459883e-03,-5.431475404017958853e-05,1.800585791120501737e-04,-9.517328012964041762e-04,-1.682547706598330577e-03,-1.803560359063746676e-03,-2.293279188008300398e-03,-1.888590483882811527e-03,-1.062506554717008393e-03
3.161736199135338054e-04,-1.380638565655206056e-03,-2.697923557743019812e-03,-6.712974031142132300e-03,-7.848260683437644283e-03,-7.533946877106021192e-03,-4.791287095137522728e-04,1.086720850635968308e-02,5.315309701561368727e-03,3.380875347850091812e-03,-7.562289080075717575e-04,-7.064836818798702137e-03,-4.404435072683218766e-03,-3.171407916121810142e-03,-7.879674039658159709e-04,2.723923818309405970e-03,2.876044497545380673e-03,-4.367107397820997779e-03,-5.586831011838760443e-03,-5.553369936912533290e-04,1.588834736649347547e-03,-6.419967850809898610e-03,-9.725525127061266512e-03,-3.934559907965106546e-03,1.813976876989985103e-03,6.870205430131949911e-03,4.349099928279834444e-03,-1.349139574154258493e-03,2.268020897723351751e-03,1.320748518536121567e-02,2.001550006738707019e-02,8.005807811612950659e-03,-6.003218984723654233e-04,-3.432914304322209377e-03,-9.917459712477247336e-03,-8.809977719190837178e-03,4.155225873291909511e-03,1.815145553632913078e-02,2.578539637885152169e-03,9.826059656789574819e-04,-4.184432753345432017e-04,9.531472337355473019e-04,2.129634466807552723e-03,1.099382075854822734e-03,2.425404363475593681e-04,-4.885146224809209809e-04,-3.928707428845606411e-04,-2.344066279016423203e-04,3.990391991081378674e-04,1.339035320056377373e-03,1.812659809907866569e-03,1.311048291939448949e-03,8.970316914430769050e-04,3.361992923031892734e-04,-2.223525079205338807e-04,1.761989722938214059e-04,7.400161153032419137e-04,-1.119569408645344722e-03,1.810033950251483141e-03,2.420200432065542154e-03,-3.147220202522059179e-04,-5.740123437597898859e-04,3.969838861656739803e-05,-1.115958949828105718e-03,-6.059584349260429626e-04,-1.077895729448003024e-03,-1.653897187887039028e-04,-1.308618628714178483e-03,-1.955876034697222147e-03,-3.940541021414724690e-03,-6.165051578249968259e-03,-4.707280250020638192e-03,-2.989848474996611733e-03,-3.904172968781048463e-03,-5.421139544020424361e-03,-4.853343911723157454e-03,-4.723185482472496387e-03,-5.172082684187731365e-03,-3.501703757601315557e-03,-2.495312882701488690e-03
1.149759887698336179e-04,-5.298060317562867981e-04,-2.922636020485987630e-03,-9.159568971710517482e-03,-1.052925086528205302e-02,-7.275247717364815431e-03,3.617389121711931700e-03,2.269390563387271853e-02,1.690406534678825720e-02,1.209196165784926641e-02,6.997826043134036667e-03,-3.677609137805903494e-03,-1.678071202897458546e-03,-1.295923916202973338e-03,-1.326336295830836615e-03,3.162550497165492018e-03,4.968234557406013899e-03,-3.661473764767947045e-03,-6.842266341444179847e-03,-8.447806770382310874e-04,1.323268982374804824e-03,-5.135133986498919938e-03,-1.159152560498106881e-02,-4.510766698114498756e-03,2.066672620921716687e-03,1.088509479631376807e-02,7.521257079262318873e-03,-1.216315175111046254e-03,1.847613777652729224e-03,2.001550006738707019e-02,3.735852731289652368e-02,1.690307599822209531e-02,4.176736634688285772e-03,3.035825675244045274e-04,-1.561023988638452799e-02,-1.213732771724297145e-02,4.763035155366816299e-03,2.424062346813255289e-02,1.920259098781388566e-03,1.671237027050155198e-03,1.686637330783079584e-04,1.284569631137170249e-03,-1.489814384247658326e-03,-1.792318627145738546e-03,-2.207067515891077743e-03,-2.295318766608722867e-03,-1.100201102889650012e-03,-5.973409699010195483e-04,-6.228229501562679900e-04,-3.935068259968824470e-04,2.929828562861339124e-04,5.156459408928604909e-04,6.337094382064369438e-04,-5.076175044294983091e-05,-4.762169178002976307e-04,-5.307062879210225652e-04,1.207648616333624730e-03,6.850908886414001182e-04,4.591304743372956118e-03,2.756043555951337171e-03,2.983068634531852803e-04,-2.586526586298275136e-03,-7.620637637066024483e-03,-9.771557870779304725e-03,-6.846120851576097642e-03,-5.821027369296520766e-03,-2.499864164215307664e-03,-4.606836396802863574e-03,-5.857304892389189263e-03,-5.910922055078333265e-03,-7.881757512761121409e-03,-7.810659180005703230e-03,-6.216867691861117061e-03,-7.072488919025151158e-03,-1.063858524542816465e-02,-9.837360660756076444e-03,-9.927745897126926539e-03,-9.087790303455377250e-03,-5.868225943714952889e-03,-5.832374640851376718e-03
-1.130264350735946490e-04,4.706506013920391156e-04,-8.669782504084559260e-04,-3.905853055686410273e-03,-4.281074004650863192e-03,-1.934874515466983389e-03,1.597687945037306635e-03,9.209621835486948155e-03,7.588746063298135343e-03,5.970680448869911637e-03,5.362151671133550540e-03,7.589435377116611004e-04,1.094296043195282881e-03,9.953247802421166975e-04,-1.115203452551613312e-03,3.222101709015919978e-04,1.447428333478380496e-03,-1.976043528774526145e-03,-3.776390182823381129e-03,-2.070104270053396874e-03,1.654082551175454965e-04,-5.276472091420703189e-04,-2.660392020282001911e-03,-3.364450432673793661e-04,7.393844891934360248e-04,4.181903829035166741e-03,3.155554721490890554e-03,3.307753281220596913e-04,1.770434966890960130e-04,8.005807811612950659e-03,1.690307599822209531e-02,9.042678312848682898e-03,4.296010089012435723e-03,2.806951434948259938e-03,-5.738961500740501903e-03,-5.714622553125022278e-03,1.848534850398378870e-03,8.925004188196325114e-03,-1.727049448384033764e-04,1.152354837968889989e-03,3.225128398209355096e-04,1.159516946145900968e-03,-2.004588815672816472e-03,-1.783712451940443200e-03,-2.029206675187590278e-03,-1.993280746388865696e-03,-1.473149751373350677e-03,-1.150728744844613021e-03,-7.569801285177504575e-04,-1.094609433521771076e-03,-8.845945110497984484e-04,-2.510403945382286479e-04,1.751647609703698731e-05,-2.464852096158335433e-04,-3.738173922662495685e-04,-7.301865222737900438e-04,2.864197817207494892e-04,1.118188505563530053e-03,2.448624125382585764e-03,6.450748575274226982e-04,3.575828330509347726e-04,-9.230020630745811722e-04,-5.322496556553600426e-03,-6.272755328372685464e-03,-4.551339094547678446e-03,-3.748435457635450416e-03,-2.194191615050926272e-03,-5.129174215053692101e-03,-5.585850469982801651e-03,-2.946572507938415453e-03,-2.968909690416480108e-03,-3.455078905247637583e-03,-2.581774685707386927e-03,-2.334993689703935942e-03,-4.460112901696917237e-03,-4.531231680082733332e-03,-4.881528714785121278e-03,-3.851860233963400222e-03,-2.351467486654117492e-03,-2.941977265476373223e-03
-3.683895570380694246e-04,1.526833610787660042e-03,1.685261456588547533e-03,8.213376568010605878e-04,2.787747266526699290e-03,6.062800453935482219e-03,6.324981334240340619e-03,3.976421921102236100e-03,4.855196732008154603e-03,6.495977732740011897e-03,8.795376070844060368e-03,9.405856855186458740e-03,8.396892137383539859e-03,5.709758012366719301e-03,-1.687338641356244919e-05,-3.628876224382397275e-04,1.537501099480783565e-03,2.642938236738435337e-03,1.421322331768915329e-03,-7.228793121691750060e-04,-9.670729246100997741e-04,4.076488696082858527e-03,4.298881948913281341e-03,3.177611607349369472e-03,1.117102867211698962e-03,2.184244902598179473e-03,5.118043609761480962e-04,3.132168018291221680e-03,-3.214450951877701650e-04,-6.003218984723654233e-04,4.176736634688285772e-03,4.296010089012435723e-03,7.498093030604516263e-03,8.171281021391123972e-03,1.901179857739171593e-03,8.166601532042943885e-04,-1.120879953062410431e-03,-3.339670315559122981e-03,-1.665853538826635345e-03,1.379971266305889252e-03,4.055473466342404882e-04,5.818351029874957578e-04,-2.538506615546059705e-03,-2.183509946701146873e-03,-1.907718468745456383e-03,-1.535899392654367212e-03,-8.614313804684329764e-04,-7.859430172677053523e-05,-7.735904012141628635e-06,-1.382120961461619224e-03,-1.546248429740139591e-03,-1.746557520887819187e-04,-1.202328955315404540e-04,-6.060047175356228716e-04,-7.952552157310186897e-04,-9.893283889068106574e-04,-6.410257300951836465e-05,9.448914576603582903e-04,1.154537279388387176e-03,-9.078277681011326589e-04,2.439275528350697529e-04,1.653893870713579175e-03,-2.649509978734855293e-03,-3.212729447367698547e-03,-3.058299327429259053e-03,-2.556338941512085322e-03,-3.483831479064316162e-03,-6.182340117698052404e-03,-6.704797768733266466e-03,-3.807571944818877261e-03,-1.415811045997324982e-03,-2.251838965254898076e-03,-5.886477361864430550e-04,1.457514121356401305e-03,-7.217853993144457284e-04,-2.307431184451029949e-03,-2.671779865309612152e-03,-1.684940505584511328e-03,-9.750892371509676474e-04,-1.922370703538123660e-03
-4.842652522564391522e-04,2.015314984493586301e-03,2.803006554162716397e-03,3.023378160570435597e-03,5.580598210477309175e-03,8.739428778486579494e-03,7.421018168523170824e-03,2.441184425427547679e-03,3.922432736450638321e-03,6.610681597050410176e-03,9.860519551746285694e-03,1.206168473533786312e-02,1.048058458567653790e-02,7.139472200318431119e-03,4.956986100317939967e-04,-5.047071167451266591e-04,1.626314746354520519e-03,3.723301313723897596e-03,2.682706463235599598e-03,-4.295862368144871043e-04,-1.510443975395437581e-03,6.303536361756748030e-03,7.346526777229256573e-03,5.088397455976455090e-03,1.758873834298393599e-03,1.517489404277714074e-03,-1.734221710677922093e-04,3.747445269340017159e-03,-4.228235600252110604e-04,-3.432914304322209377e-03,3.035825675244045274e-04,2.806951434948259938e-03,8.171281021391123972e-03,9.676740469431944353e-03,4.001363815941834032e-03,2.204932742797861573e-03,-2.256591472699404424e-03,-6.650404133741838301e-03,-2.585855930230678695e-03,8.929459916128370048e-04,4.221312711102600699e-04,6.549319720321982027e-04,-2.496267711998239811e-03,-2.086587396158262435e-03,-1.713179480282019020e-03,-1.346667363252721699e-03,-7.115783535018606332e-04,1.654216108704607835e-04,1.621967506529130689e-04,-1.381794243007212868e-03,-1.583522742510220594e-03,-1.145767546879569085e-05,-1.153251625289280004e-05,-5.797255255203090287e-04,-7.838826679054340446e-04,-9.974902491198809392e-04,-1.643836539830382572e-05,1.266618652946648309e-03,7.895374628803215151e-04,-1.595750746816943953e-03,1.477875200880519977e-04,2.556259812459964285e-03,-1.405636679657717514e-03,-2.076982847747946281e-03,-2.424480793474165837e-03,-2.148587803654446789e-03,-3.802200221753073307e-03,-6.804393401097687775e-03,-7.678484408869911196e-03,-4.425403622917311978e-03,-1.149617010701893061e-03,-1.995244953120415676e-03,-1.368080961248072432e-05,2.408465229761920252e-03,1.091383787009857934e-05,-2.005952001136404855e-03,-2.526583259599396447e-03,-1.343487989212482957e-03,-8.445163848222912370e-04,-1.983680247444095848e-03
-2.384174444199508094e-04,1.020463878383522918e-03,2.025526764813492201e-03,4.412530904752486050e-03,5.928278623991913195e-03,6.280832594521522372e-03,1.269032697575190336e-03,-8.925780091915289094e-03,-5.199426066384867269e-03,-2.498195104462248677e-03,1.175135647469906577e-03,6.427464251302186446e-03,4.837266155147673143e-03,3.378787338249442627e-03,4.189818021813081065e-04,-2.014807676761952004e-03,-1.947700166983874987e-03,3.247891585446087588e-03,4.106791267059740035e-03,-6.056655112018482362e-05,-1.075190373167765091e-03,4.324513816114059460e-03,7.390481815573357073e-03,3.255385568254479025e-03,-1.059163789976882205e-03,-4.512088087766139878e-03,-3.439661888869697138e-03,2.095373370091866642e-03,-1.364307569979393694e-03,-9.917459712477247336e-03,-1.561023988638452799e-02,-5.738961500740501903e-03,1.901179857739171593e-03,4.001363815941834032e-03,8.491605629668417393e-03,6.648171898637040243e-03,-2.813988250811764059e-03,-1.392818959644249142e-02,-1.668924660262066607e-03,1.151840033824539310e-04,2.174061013714500103e-04,-4.941500840488204788e-04,-1.165985698727724576e-03,-6.723782165690101809e-04,-2.269966230856798194e-04,1.641489297847257482e-04,1.700633979289561923e-05,1.289027939263755358e-04,8.640153921692600794e-05,-8.341522387448810751e-04,-1.291702106408555402e-03,-6.787005789483673999e-04,-5.851117211213427904e-04,-3.862018236827315294e-04,-1.814691066556670931e-04,-3.279823745604045480e-04,-7.327468534983363991e-04,2.309059421667647980e-04,-1.511596890986979325e-03,-1.739138967169998702e-03,1.234231404047816060e-04,1.562663364339291969e-03,1.119629478244197956e-03,2.048870524043266625e-03,1.065131929848228123e-03,1.126372475244645770e-03,-5.472883072140126339e-04,-6.322312306241932708e-04,-2.642986902579094811e-05,1.698512944496568741e-03,3.734223422828477582e-03,2.968491656779657754e-03,2.623309746935336383e-03,4.043385535256243876e-03,4.864669508616999496e-03,3.820465711819429674e-03,3.737341077789205560e-03,3.866434531652636168e-03,2.644904735119733754e-03,2.040864052104627343e-03
-6.696643624347047431e-05,3.093299381022989185e-04,4.824210558455682631e-04,2.355344551151326501e-03,3.222269251439793727e-03,5.303137188144587018e-03,4.287108012232475861e-03,-3.470879960768017292e-03,3.161831122544133191e-03,1.154792464198839061e-03,2.257207367037688227e-03,6.104409974398933812e-03,3.735112681004341094e-03,1.866648444073772594e-03,4.145367107552304581e-04,-1.962493525516351405e-03,-1.644828250399653791e-03,8.084925110182357780e-03,8.782120441708375636e-03,3.916890247683599453e-03,-4.701306687549038034e-04,1.865141158863222338e-03,1.487469047703899152e-03,-3.192530792845529094e-03,-5.210762205492976661e-03,-5.048272435076908010e-03,-3.349682769845732395e-03,7.397725081030925636e-04,-2.809841993140846025e-03,-8.809977719190837178e-03,-1.213732771724297145e-02,-5.714622553125022278e-03,8.166601532042943885e-04,2.204932742797861573e-03,6.648171898637040243e-03,1.222497869642146483e-02,-3.175812797267811745e-03,-1.733395326133725309e-02,2.947256234884866100e-04,1.076840143228943378e-03,7.205766216887719757e-04,-3.407121588883389902e-03,-4.855275077137136130e-03,-3.383761615646743541e-03,-1.409370614633279018e-03,5.977942360382762889e-04,1.817608495797558895e-03,1.738947385948308270e-03,-6.080017133122978413e-04,-2.240101961317669116e-03,-2.875450740326085039e-03,-2.623838118576836149e-03,-1.882442992064033583e-03,-1.012779142966628229e-03,-1.241125736972127354e-04,-2.285365814577488609e-04,-9.569297003064098934e-04,-7.102241019840735794e-05,-8.525818163086476727e-04,-7.089337824249220769e-04,9.750313727631287506e-04,-2.909403473861592402e-03,-6.382226521787188502e-03,-4.409446509814475383e-03,-3.164689270808474213e-03,-9.397278808816327293e-04,3.938972328061826839e-04,7.014893290113919343e-03,9.080150535070705131e-03,7.322715234652232147e-03,7.727263841146411044e-03,4.817565235271437096e-03,9.559191093282689384e-04,1.458614606140300066e-03,4.168639114654642576e-03,4.720779160806543029e-03,5.706636346501313926e-03,5.227392079536478942e-03,3.958382949202790026e-03,3.238035422077969148e-03
1.746221939497592844e-04,-7.468614549407800660e-04,-1.424489360549677274e-03,-2.955109899537418979e-03,-3.630505468740404581e-03,-3.959991707848374044e-03,-2.124009345871572755e-03,1.143433301663330289e-03,-6.884884215445251018e-04,-1.120096891196718965e-03,-2.277136594475944950e-03,-4.262270078503320458e-03,-3.038403206285137260e-03,-2.005552293267271000e-03,-6.569382472764400240e-04,4.694718472992800051e-04,1.881397541443151136e-05,-2.573633537819931035e-03,-2.712319343048232544e-03,-9.608799648368956947e-04,7.968718974946729754e-04,-3.281519171032469106e-03,-3.820762174899808728e-03,-1.784450971906948076e-03,4.735000330687544302e-05,1.366968945639506243e-03,1.002216322010438714e-03,-6.434683848609338251e-04,6.831965308356219421e-04,4.155225873291909511e-03,4.763035155366816299e-03,1.848534850398378870e-03,-1.120879953062410431e-03,-2.256591472699404424e-03,-2.813988250811764059e-03,-3.175812797267811745e-03,1.886145895393611131e-03,6.029864194224216802e-03,1.233207717819153129e-03,5.578364524531986357e-04,-2.130336526316489775e-04,4.166823519301194115e-04,1.151505165302824530e-03,7.210040206923409856e-04,2.243996237269633791e-04,-1.654009300486118097e-04,-4.166727190648552236e-04,-4.991306595021463349e-04,8.682282767296653015e-05,5.642403482306769654e-04,6.633192027779243310e-04,3.525722532686169602e-04,2.007550128278825802e-04,1.294520745203675311e-04,-4.934700840917257601e-05,8.118632458804119672e-05,6.905633272791659857e-06,-7.224357135670149421e-04,2.609363266489764461e-04,9.482608697600439663e-04,-1.188895018021753666e-04,-2.199607315639725419e-04,4.826144893431162913e-04,4.265384726524153766e-04,4.694789797870372629e-04,1.968499248103786124e-04,4.214969479061888083e-04,-2.526149122536422193e-04,-4.769809094679644296e-05,-4.401836739650946402e-04,-1.541031265220571631e-03,-8.750630446116147839e-04,-4.606818495564603396e-04,-8.485795031576491392e-04,-8.501990319787023969e-04,-5.605588163898343789e-04,-4.797732155331482025e-04,-8.405035377012245144e-04,-5.335159423883786270e-04,-4.606120670948509160e-05
4.486276495516507471e-04,-1.983471788143968163e-03,-2.371424861770849140e-03,-6.516963624433075308e-03,-7.835773905314437002e-03,-1.058588693615442056e-02,-3.240519056266182984e-03,1.178596072721981892e-02,-4.262999111758240204e-05,9.589189894216627744e-04,-4.665304536089832574e-03,-1.221278030734013371e-02,-7.319060835144219034e-03,-4.908742724521937030e-03,-2.928982325666020374e-05,5.418322051183353284e-03,5.066614897289010988e-03,-9.998331843029898552e-03,-1.103123324484257990e-02,-1.941817530617649624e-03,1.934895360495921587e-03,-7.831525024166919105e-03,-1.024652385170378606e-02,-7.636657761366238972e-04,7.302569259988464859e-03,1.103556855105207457e-02,6.377884865238312752e-03,-2.010145911717980266e-03,5.443609714231608179e-03,1.815145553632913078e-02,2.424062346813255289e-02,8.925004188196325114e-03,-3.339670315559122981e-03,-6.650404133741838301e-03,-1.392818959644249142e-02,-1.733395326133725309e-02,6.029864194224216802e-03,3.107785606191941843e-02,2.585526159965736287e-03,-7.687963382505658789e-04,-1.383951864860789556e-03,3.402373945350526795e-03,8.356222921063959433e-03,5.565749375451640307e-03,3.053445340088043348e-03,3.717987307492460602e-04,-7.637062472101908582e-04,-5.178091485714344947e-04,1.835385456134489479e-03,4.513428216698835843e-03,5.556615291200652125e-03,4.459524620203107054e-03,2.993981983170205564e-03,1.496530754847342007e-03,8.037742975866786463e-06,9.227384458398869144e-04,1.801937965552213904e-03,-1.937757163883393205e-03,1.397974876781444935e-03,2.917700732295291314e-03,-1.606011106662287580e-03,3.194334479023103364e-03,1.012254889244625783e-02,7.241063210394217513e-03,5.271760628765440222e-03,2.002100525012841942e-03,3.830604468365913910e-04,-4.871197912919523684e-03,-7.712441849247122713e-03,-1.078533487001784828e-02,-1.327287328007869041e-02,-8.492568984110946198e-03,-2.975818315511863463e-03,-4.420339887021266026e-03,-7.829861069275509400e-03,-7.929290759984036069e-03,-8.466590491159053933e-03,-9.182656491483743438e-03,-6.853537032415008869e-03,-4.627526998884608569e-03
2.439989083830896048e-04,-1.047212945443684335e-03,-1.498881537501029881e-03,-2.607501100907982840e-03,-2.935215856797535831e-03,-2.910139950093307802e-03,-2.222965591747302016e-04,1.246927857839674400e-03,4.580989852390791677e-04,-5.559017511641870879e-04,-2.335704908846052315e-03,-3.350654319087900419e-03,-2.354507529974358710e-03,-1.958916631312808236e-03,-2.296347581707966425e-04,7.111360835476169748e-04,3.338598496772590967e-04,2.996793194269206390e-05,1.994964223603523830e-04,1.124248370971940884e-03,9.304353414012963034e-04,-3.848182196534179027e-03,-4.947988370567532775e-03,-3.564663389760827378e-03,-1.067512600204131466e-03,8.937846047641693050e-04,3.204724714256736487e-04,-5.966580253495668658e-04,4.367416283917232981e-04,2.578539637885152169e-03,1.920259098781388566e-03,-1.727049448384033764e-04,-1.665853538826635345e-03,-2.585855930230678695e-03,-1.668924660262066607e-03,2.947256234884866100e-04,1.233207717819153129e-03,2.585526159965736287e-03,1.985864666719267847e-03,8.669728868995828881e-04,-1.764039768146237334e-04,-8.148135442909085202e-04,6.444647727564143877e-04,3.310229301143350418e-04,3.898095700074654573e-04,4.883376636719546698e-04,6.285403583345438097e-04,5.710081815023343400e-04,3.298834981298408146e-04,5.218463371874881808e-04,4.895738822351051577e-04,3.254501954016514797e-05,-1.088458888344778129e-04,-6.450299486970145898e-05,-1.101464005984464765e-04,2.402292093875420069e-04,-1.045005495853954821e-04,-1.354442770153425598e-03,-1.419982950638612614e-04,1.143195630500520562e-03,-1.223197964079357902e-05,-8.353660958444782255e-04,3.805215911235935669e-05,4.580041119475147630e-04,4.716716989776647065e-04,5.480546301076396438e-04,8.437666451831621296e-04,2.937126140156027382e-03,3.600105629937442198e-03,1.140938435088348140e-03,-2.095405641985281775e-04,3.226902115238921946e-05,-3.723124426365723291e-04,-7.579414902643030446e-04,7.243926542075227349e-05,5.683398979440283313e-04,1.107135298108101115e-03,2.013521703760972833e-04,2.162756743460280046e-04,8.914578579563140794e-04
4.771833668641016263e-05,-2.099054624145270831e-04,-8.078288469743264127e-04,-2.022322611895816576e-03,-1.819839272694814825e-03,-5.066792766721542676e-04,9.686499259723424515e-04,7.775113098607798739e-04,1.392826558534055598e-03,9.060000696087440204e-04,8.982347704567465035e-04,4.313526237344698618e-04,6.225914878532046951e-04,2.816800082916210519e-04,-5.860691624483442075e-04,-3.604933854438362238e-04,-1.865662090285464679e-04,7.370683830771439108e-04,4.898235518079731374e-04,-3.900758754420748792e-05,3.802842611031698400e-04,-1.564975645400659698e-03,-2.032531248573603722e-03,-1.875942013486270495e-03,-1.383388163915619945e-03,2.454350651482299205e-04,-2.866067661254215123e-05,5.849902146296525598e-04,-3.419811040423994153e-04,9.826059656789574819e-04,1.671237027050155198e-03,1.152354837968889989e-03,1.379971266305889252e-03,8.929459916128370048e-04,1.151840033824539310e-04,1.076840143228943378e-03,5.578364524531986357e-04,-7.687963382505658789e-04,8.669728868995828881e-04,1.392999671984728729e-03,1.343482730991363858e-04,-4.948680919094391312e-04,-1.139786523656222171e-03,-1.000186757727611038e-03,-8.029735714535674203e-04,-4.489715570235407313e-04,-1.409342002815011847e-04,-1.985870084925380678e-05,-1.069287652488530853e-04,-5.734882162383729467e-04,-7.468373413805426278e-04,-5.616154731343270820e-04,-4.638685054238806836e-04,-3.908022891809803125e-04,-3.431857373504199537e-04,-3.044447257336630667e-04,-3.696932986793226880e-04,-5.209949943780130830e-04,2.733064701971519542e-04,4.486192034488930224e-04,2.687135886479509266e-04,-6.118429567258512397e-04,-2.293141607498258138e-03,-1.823427954867804261e-03,-1.373645102409959797e-03,-7.944177642377691587e-04,-4.784510889499655204e-04,9.569964338516645248e-05,8.784819455929061350e-04,8.691888025311018083e-04,6.123306177491941518e-04,1.060660545264896032e-04,-2.185230119703958742e-04,2.129900112599463500e-04,4.897880261668496188e-04,4.563119395949939206e-04,7.489605133129220195e-04,5.013903352095367728e-04,5.686133500339260374e-04,5.520396907734957410e-04
-3.611530899625608142e-05,1.650436163099006006e-04,-6.724621029662158759e-05,-8.168966497168899689e-05,-2.304283736410483281e-04,1.758999497742333321e-04,-1.650309308880911291e-05,7.862023104240290438e-05,1.009042825174630374e-03,3.838177444251239219e-04,6.551231383621431087e-04,5.256914886782913061e-04,1.296979106800950161e-04,1.355191698651321205e-04,-2.077737453176828060e-04,-5.132430933809997969e-04,-4.544443284688618931e-04,4.475145637965728890e-04,3.374927880777376711e-04,-1.155820053283425906e-04,-9.489497052876063232e-05,3.964627014891552699e-04,2.208057661274714922e-04,-2.841683634035414244e-04,-7.848629956351765120e-04,-6.694322291275908937e-04,-1.451155410273517938e-04,-6.369941432392210961e-05,-5.535360430231933866e-04,-4.184432753345432017e-04,1.686637330783079584e-04,3.225128398209355096e-04,4.055473466342404882e-04,4.221312711102600699e-04,2.174061013714500103e-04,7.205766216887719757e-04,-2.130336526316489775e-04,-1.383951864860789556e-03,-1.764039768146237334e-04,1.343482730991363858e-04,1.798071086442845493e-04,-2.096735042700007120e-04,-1.078330678167019894e-03,-7.496025754996823434e-04,-5.420974537405128923e-04,-2.718617489059181602e-04,-1.139062254033152652e-04,-1.663798921172852106e-04,-3.674969128494679784e-04,-5.841222173267953018e-04,-6.389556720345079821e-04,-5.378584861183243046e-04,-3.195585765800979623e-04,-1.473143459076908432e-04,2.021579176352386652e-05,-1.398093812253353057e-04,-1.325082832828584196e-04,3.682932006925177318e-04,2.090961895496959856e-04,-1.182572642184072744e-04,2.271864163848312805e-04,-7.339615906875243808e-04,-1.929434857662385826e-03,-1.740961158613507382e-03,-1.182383811713797481e-03,-7.055082386284077054e-04,-9.763312953386970618e-05,1.972880001231877816e-04,4.697275053598938218e-04,1.049017030349987242e-03,1.075095100691706145e-03,5.223166088052953390e-04,-1.186747124744640927e-04,-1.402142205405312815e-04,5.226214131149484280e-05,2.279145243868132013e-04,2.508553733637905372e-04,4.450857778530507543e-04,4.037688073263974529e-04,1.272825325387246713e-04
-7.210245589592881841e-05,2.970661434262624758e-04,5.489042190656814087e-04,4.730121096761336031e-04,6.021634548146184360e-04,-4.868122897291626724e-05,-1.073804949371226850e-03,-5.304510666127213413e-04,-2.260905635569023745e-03,-6.404744486837332142e-04,2.179190502053615544e-05,-1.692327750292788816e-04,2.596673232525197961e-04,5.006085572154824566e-04,-3.075417334809974207e-06,2.828370435820901693e-04,3.058314267700890554e-04,-2.366540497406390692e-03,-2.518395796940977281e-03,-1.685467605767066888e-03,-2.165111276970086622e-04,9.035814501388561831e-04,1.874172484326681095e-03,2.614593975304829211e-03,2.093108696695227325e-03,1.040983618554880375e-03,5.662095474148836315e-04,3.697855791686673142e-04,7.843930139196195628e-04,9.531472337355473019e-04,1.284569631137170249e-03,1.159516946145900968e-03,5.818351029874957578e-04,6.549319720321982027e-04,-4.941500840488204788e-04,-3.407121588883389902e-03,4.166823519301194115e-04,3.402373945350526795e-03,-8.148135442909085202e-04,-4.948680919094391312e-04,-2.096735042700007120e-04,1.375596626921507526e-03,1.551316591379919927e-03,1.112363260541837564e-03,4.273357376155913147e-04,-2.933109953898447903e-04,-8.025927760490126793e-04,-7.025913596608798772e-04,2.458179518613312999e-04,6.241479894161225178e-04,7.798482739498565925e-04,9.220241057088445847e-04,6.544690379020686073e-04,3.140357518645747747e-04,-4.835780011974175929e-06,-3.713283500843304007e-05,2.501399304128016244e-04,2.820076391288881858e-04,5.870155506540892512e-05,-2.882440287894789933e-04,-3.651751924292796769e-04,1.721094001836448797e-03,2.806484256120174263e-03,2.126901047635233050e-03,1.381991623333496963e-03,4.918681129854975999e-04,-5.201504080742782926e-04,-3.530800620919428891e-03,-4.361480221164512963e-03,-2.918671835030342901e-03,-2.350044989978301944e-03,-1.396648971622223116e-03,2.183122088957043839e-04,4.593136818178345979e-04,-6.519554342424049072e-04,-1.239034254266536180e-03,-1.735159097471028868e-03,-1.367311968273958369e-03,-1.100574712269453701e-03,-1.058273879638024729e-03
1.807442894196218026e-04,-8.310171091327593369e-04,6.388006399440540432e-04,9.967088464966119676e-04,1.793390671007517737e-03,-9.408349228570921617e-04,-5.277196624046188479e-04,-1.100293104641003562e-03,-6.710466183364197090e-03,-2.742364473178448420e-03,-4.052396078309820210e-03,-3.176547612136478710e-03,-9.161535478598793790e-04,-7.781124038970509702e-04,1.257170767296537884e-03,2.925580987201125208e-03,2.511252518035588660e-03,-3.192544963060375655e-03,-2.512881263065471979e-03,2.465123273424693205e-04,4.137588217674857292e-04,-1.737414445018359028e-03,-3.633939953684105738e-04,2.513759389128386590e-03,5.024403328966630181e-03,3.718104998409147311e-03,8.313807918736699880e-04,2.992271935017874014e-04,3.289491472371975592e-03,2.129634466807552723e-03,-1.489814384247658326e-03,-2.004588815672816472e-03,-2.538506615546059705e-03,-2.496267711998239811e-03,-1.165985698727724576e-03,-4.855275077137136130e-03,1.151505165302824530e-03,8.356222921063959433e-03,6.444647727564143877e-04,-1.139786523656222171e-03,-1.078330678167019894e-03,1.551316591379919927e-03,6.603868438186302932e-03,4.651966550755289899e-03,3.301711175185201557e-03,1.564691210198711517e-03,4.833275959573063202e-04,7.543390506993694284e-04,2.117111614537316513e-03,3.510113156266210076e-03,3.873519224158026956e-03,3.287778163315547598e-03,1.996554191370371149e-03,9.685684344752146496e-04,-3.426657672897147832e-05,8.399336346034719410e-04,8.374971037876800372e-04,-1.911859961794784568e-03,-1.273338088721632632e-03,4.923479065777119565e-04,-1.398362988461976982e-03,4.582020054978189552e-03,1.189018161743234624e-02,1.064736378553852829e-02,7.259342051858931437e-03,4.284921577011097452e-03,5.975397372753310770e-04,-1.790650575818494850e-03,-3.597929876287935154e-03,-6.496003460317196880e-03,-6.483208602877029401e-03,-3.092516821740373678e-03,8.456902304774540323e-04,9.240602893069619446e-04,-3.632149698846835750e-04,-1.451489485453815419e-03,-1.740122124657163261e-03,-2.714882387838833157e-03,-2.491736145700807793e-03,-9.303526833247323683e-04
1.246109067209703479e-04,-5.674887666451933991e-04,4.798927193792909378e-04,9.512100166462038060e-04,1.368842152359506193e-03,-7.951379580230326632e-04,-9.295970950238141182e-04,-1.393236995283429628e-03,-5.172462750043248930e-03,-2.449557428814311526e-03,-3.283029582995565260e-03,-2.567522664272082252e-03,-1.064761037284395412e-03,-7.801211853399956774e-04,8.799746235378182223e-04,1.910712223359589028e-03,1.496934609176797442e-03,-2.423228239200411142e-03,-1.861099704608900913e-03,6.329741628844536613e-05,2.481405006414470738e-04,-1.052570446068975228e-03,4.561626417003171382e-05,1.904745880774532090e-03,3.445821808757028749e-03,2.176021621588570317e-03,4.445207083841623162e-04,1.880951528736856960e-05,2.206397773272217658e-03,1.099382075854822734e-03,-1.792318627145738546e-03,-1.783712451940443200e-03,-2.183509946701146873e-03,-2.086587396158262435e-03,-6.723782165690101809e-04,-3.383761615646743541e-03,7.210040206923409856e-04,5.565749375451640307e-03,3.310229301143350418e-04,-1.000186757727611038e-03,-7.496025754996823434e-04,1.112363260541837564e-03,4.651966550755289899e-03,3.329202695382977618e-03,2.372552758144802140e-03,1.140052936035420737e-03,3.157821947902900378e-04,4.372232853666344955e-04,1.403551723562603123e-03,2.447500092028543229e-03,2.708896613017384384e-03,2.248627225787431724e-03,1.380415331676404511e-03,7.197481019016663392e-04,5.876526048392339587e-05,6.268216482474833155e-04,5.781358131580567519e-04,-1.223747030446806607e-03,-9.726455531049536113e-04,2.610283983364987772e-04,-9.739696619412238241e-04,3.102831271660581522e-03,8.365516034295084058e-03,7.528910128483538682e-03,5.189705322252624944e-03,3.102062326357596378e-03,6.121805199554548145e-04,-1.061636575366919607e-03,-2.317859764763935577e-03,-4.213342968011941567e-03,-4.235817083838098150e-03,-1.878963813517527419e-03,7.108506161647004922e-04,6.443203872910802663e-04,-1.309710443420654370e-04,-8.046130223607624683e-04,-1.038253638345355790e-03,-1.679354043353839922e-03,-1.606656929601744466e-03,-5.441263005579161484e-04
1.066796512582947424e-04,-4.829315345912922695e-04,4.300667506585359261e-04,1.057028576539209824e-03,1.455143107887920924e-03,-1.222678500746692801e-04,-1.253128702105900349e-05,-8.066176113970699403e-04,-3.282166280574478571e-03,-1.510949808210324333e-03,-2.389314749038478833e-03,-1.540964543608409508e-03,-5.655963187546443399e-04,-5.635778992135131137e-04,8.789884426394411945e-04,1.558643390861805342e-03,1.292799121153002419e-03,-8.882295760366393234e-04,-3.671556725629573979e-04,8.385994176322115676e-04,1.736826516576437621e-04,-7.410566849759364595e-04,-1.603624830993565463e-04,9.697400868658058578e-04,2.309076787419300086e-03,1.478316697594667713e-03,1.502319361229018709e-04,-5.780412424582722676e-05,1.566301010186099772e-03,2.425404363475593681e-04,-2.207067515891077743e-03,-2.029206675187590278e-03,-1.907718468745456383e-03,-1.713179480282019020e-03,-2.269966230856798194e-04,-1.409370614633279018e-03,2.243996237269633791e-04,3.053445340088043348e-03,3.898095700074654573e-04,-8.029735714535674203e-04,-5.420974537405128923e-04,4.273357376155913147e-04,3.301711175185201557e-03,2.372552758144802140e-03,1.863047225196486079e-03,1.108014191247340494e-03,6.331839098329170674e-04,7.210991871665335760e-04,1.112150364163047708e-03,1.822930520903397189e-03,1.995607314489042383e-03,1.590057555397996229e-03,9.559984273459047610e-04,5.026255805079403623e-04,6.513805013884890912e-05,5.495217388422351948e-04,4.470700868908971336e-04,-1.020809389163362902e-03,-8.392971931249357731e-04,2.108244383104966211e-04,-6.983511777858972735e-04,2.076667617618840975e-03,6.116318053236325866e-03,5.591091909273159660e-03,3.857651449878185188e-03,2.411681222232039349e-03,6.285565058185723069e-04,3.504819197139581299e-04,-5.232306275543642310e-04,-2.657461162007781607e-03,-2.731358491960291651e-03,-1.122529937626300751e-03,5.067575473744739128e-04,3.912486063749097756e-04,5.302419280978813379e-05,-3.479875767532176274e-04,-3.918036425817972637e-04,-1.004168058069364149e-03,-1.033878303661045104e-03,-2.025295461424033133e-04
8.935582505813513489e-05,-3.954621805947165520e-04,1.894771868299047527e-04,7.971801673251953466e-04,1.040365618066324375e-03,2.050862011315660136e-04,5.614937418335049293e-04,-3.296817176723062571e-04,-1.212733437866320586e-03,-6.685041497729067453e-04,-1.498803240289633401e-03,-7.278034970895579494e-04,-3.336004221586835305e-04,-4.848788094711258727e-04,6.749286695335888217e-04,9.468639161821482044e-04,7.854325924194285879e-04,5.279097176938742910e-04,9.571341374798172453e-04,1.362652007721677468e-03,1.401285450588503735e-04,-5.985547864079519441e-04,-5.885223932866030057e-04,-2.507658572219452443e-04,7.644403266580761507e-04,5.065963067413116038e-04,-1.700893966230064417e-04,-1.960614372938781157e-04,7.132808390896146862e-04,-4.885146224809209809e-04,-2.295318766608722867e-03,-1.993280746388865696e-03,-1.535899392654367212e-03,-1.346667363252721699e-03,1.641489297847257482e-04,5.977942360382762889e-04,-1.654009300486118097e-04,3.717987307492460602e-04,4.883376636719546698e-04,-4.489715570235407313e-04,-2.718617489059181602e-04,-2.933109953898447903e-04,1.564691210198711517e-03,1.140052936035420737e-03,1.108014191247340494e-03,9.087165368563676886e-04,8.092654954214946114e-04,8.271513688173252410e-04,6.496706952718500541e-04,9.677744847489713450e-04,1.025669983656260281e-03,6.992951911137928198e-04,3.874193292875468945e-04,2.219204172926435715e-04,6.830093889514096195e-05,4.009862703382500895e-04,2.252928573679918527e-04,-7.323855904474462549e-04,-6.086073907168181073e-04,1.889941512846608513e-04,-3.254316663344893165e-04,7.135430012654306537e-04,3.027776410050589655e-03,2.926493900633654523e-03,2.050277940915856602e-03,1.436840434834812680e-03,6.394466554363836645e-04,1.747834817026016046e-03,1.441895755962034620e-03,-6.076655868243913431e-04,-8.213155130587172347e-04,-1.501660963750954027e-04,2.642882697033946556e-04,7.749574451905181312e-05,2.905437578815232586e-04,2.562700481212606225e-04,4.164559446444640340e-04,-1.152743619714137745e-04,-2.590664862882997377e-04,2.569945295870531654e-04
7.382800200517433188e-05,-3.296795393068214087e-04,1.187793909041438075e-04,5.681187127669500058e-04,9.036835973333882249e-04,7.926075311543579870e-04,1.922829712325821189e-03,1.271139777571698125e-03,1.112132877358890234e-03,8.802474579938185601e-04,-1.763145038801981247e-04,3.889245468313719234e-04,4.655680265166226906e-04,-8.741000297568254451e-05,6.878194031940823919e-04,9.022814042011176750e-04,1.026425904887223609e-03,1.834001934252746813e-03,2.079934875089287354e-03,2.079718224785264552e-03,1.190683527462715972e-04,-4.928098983157471781e-04,-1.152677806655343388e-03,-1.098343598230136107e-03,7.962957468315985763e-05,6.274918136654949932e-04,-8.754782708180494730e-05,-1.165710057570554421e-04,3.627931113613548511e-04,-3.928707428845606411e-04,-1.100201102889650012e-03,-1.473149751373350677e-03,-8.614313804684329764e-04,-7.115783535018606332e-04,1.700633979289561923e-05,1.817608495797558895e-03,-4.166727190648552236e-04,-7.637062472101908582e-04,6.285403583345438097e-04,-1.409342002815011847e-04,-1.139062254033152652e-04,-8.025927760490126793e-04,4.833275959573063202e-04,3.157821947902900378e-04,6.331839098329170674e-04,8.092654954214946114e-04,1.068903560126746371e-03,1.136784231408199519e-03,4.890011506458518883e-04,5.005102965045734069e-04,5.076732642461357584e-04,2.758954630012948155e-04,1.118184761548157366e-04,2.887421121097711544e-05,-1.139174334494849672e-06,3.039880608447767985e-04,1.833838606400473904e-04,-6.260911642648392048e-04,-3.258153720920011691e-04,2.589179405359969596e-04,-1.202654370869732516e-04,-1.055107842127167994e-05,1.153199315082627024e-03,1.180404338812136682e-03,7.936409513589156618e-04,6.860584359109785611e-04,4.122358350204139246e-04,2.541286241788931564e-03,2.443748739665319372e-03,8.031986582096441814e-05,-1.551020796478021137e-04,-3.486568216308663068e-05,-1.527266937235954424e-04,-2.952646993288958422e-04,2.553247861067318032e-05,1.326667325074838753e-04,4.522227229882994450e-04,-5.513838589354211637e-05,-1.224922504925740629e-04,2.352034461031650328e-04
4.969250550593310399e-05,-2.412563218926678979e-04,4.042756669974759695e-04,7.677059854230878925e-04,1.510837995625511840e-03,1.657287030719655245e-03,3.114554817525170237e-03,2.044571941902572233e-03,1.469139610114702848e-03,1.772441532378938494e-03,7.532917609387223060e-04,1.514477997541589663e-03,1.677161105382537695e-03,6.583148190752757161e-04,8.795452957906943698e-04,1.252819059063254789e-03,1.644381821802763308e-03,2.198899658783238283e-03,2.346803286212022568e-03,2.298064441725173636e-03,5.051860018233675180e-05,-1.992212992286348128e-04,-8.363702254999362323e-04,-6.397902713786445981e-04,6.830694601259745553e-04,1.427449741820406874e-03,7.907907531818383863e-05,3.594730895205772224e-04,6.690570370712841134e-04,-2.344066279016423203e-04,-5.973409699010195483e-04,-1.150728744844613021e-03,-7.859430172677053523e-05,1.654216108704607835e-04,1.289027939263755358e-04,1.738947385948308270e-03,-4.991306595021463349e-04,-5.178091485714344947e-04,5.710081815023343400e-04,-1.985870084925380678e-05,-1.663798921172852106e-04,-7.025913596608798772e-04,7.543390506993694284e-04,4.372232853666344955e-04,7.210991871665335760e-04,8.271513688173252410e-04,1.136784231408199519e-03,1.358433214413376847e-03,7.484600288482673620e-04,6.779900210734334225e-04,6.935467849355412238e-04,5.788600489542223464e-04,2.833091075574575499e-04,2.285532391047145014e-05,-1.313899462020796179e-04,2.716301441514002617e-04,2.720114717917553027e-04,-7.688655497381683768e-04,-2.974799529943219817e-04,2.343440327468800143e-04,-2.220844874144959138e-04,6.204473159320016877e-04,1.934661392079385298e-03,1.774954144904685501e-03,1.066966488494597775e-03,7.640172587197248703e-04,-7.944113144869160755e-07,1.838291754290806391e-03,1.502527807892365449e-03,-1.054398237358310534e-03,-9.918747366829527151e-04,-6.780110686326209189e-04,-2.136136056528581905e-04,-6.466815537774483471e-05,-1.368051828438617576e-04,-3.413552355440376712e-04,-4.607015714610089178e-05,-5.782484428187942846e-04,-5.175227074601504353e-04,-1.014777110427629217e-04
4.508524469817269399e-05,-2.279214915082358468e-04,4.808221234411182740e-04,5.901454826845658553e-04,1.374372937413849242e-03,9.558790479869867535e-04,1.674931582200173434e-03,5.570928407062278580e-04,-1.290132843908529470e-03,3.305195673862768892e-04,-1.749553294456440179e-04,5.563903146779189532e-04,1.264951937030625237e-03,6.170369462520367476e-04,6.914607091385219619e-04,1.315160059824122549e-03,1.509360064005572932e-03,1.446639122989787189e-04,3.173988873891927121e-04,8.574464686878899202e-04,8.440598040999078375e-05,-3.502931328305771601e-04,-6.372338114525060077e-05,7.763579296127349691e-04,1.856562211343207010e-03,1.868083009184600112e-03,2.501000829760606004e-04,6.394801469859622434e-04,1.248553541748490588e-03,3.990391991081378674e-04,-6.228229501562679900e-04,-7.569801285177504575e-04,-7.735904012141628635e-06,1.621967506529130689e-04,8.640153921692600794e-05,-6.080017133122978413e-04,8.682282767296653015e-05,1.835385456134489479e-03,3.298834981298408146e-04,-1.069287652488530853e-04,-3.674969128494679784e-04,2.458179518613312999e-04,2.117111614537316513e-03,1.403551723562603123e-03,1.112150364163047708e-03,6.496706952718500541e-04,4.890011506458518883e-04,7.484600288482673620e-04,9.795079399536987634e-04,1.221567687336407851e-03,1.302057133611078275e-03,1.222946628921188494e-03,6.971578763991219006e-04,2.255770382934012177e-04,-1.749577874777526556e-04,2.511974322247840000e-04,3.130477026710335006e-04,-8.972377259300415037e-04,-4.503862557925385657e-04,1.720054027437188042e-04,-4.976952472153623689e-04,1.897601121205389320e-03,4.261558710667910296e-03,3.814539912664375969e-03,2.446276315433580997e-03,1.443507551272787308e-03,-1.780377949332806627e-04,-4.843038623749235344e-04,-1.156544999178901311e-03,-2.768206227871073191e-03,-2.498324540302905832e-03,-1.392810042987384887e-03,2.074496107705488680e-04,5.613117830655244174e-04,-3.681515660044262089e-05,-6.546028368557783644e-04,-6.447524704540786439e-04,-1.106586895387010310e-03,-9.744857832810301839e-04,-3.980388006764103994e-04
